{"learner":{"attributes":{"scikit_learn":"{\"_estimator_type\": \"classifier\"}"},"feature_names":[],"feature_types":[],"gradient_booster":{"model":{"gbtree_model_param":{"num_parallel_tree":"1","num_trees":"200"},"iteration_indptr":[0,1,2,3,4,5,6,7,8,9,10,11,12,13,14,15,16,17,18,19,20,21,22,23,24,25,26,27,28,29,30,31,32,33,34,35,36,37,38,39,40,41,42,43,44,45,46,47,48,49,50,51,52,53,54,55,56,57,58,59,60,61,62,63,64,65,66,67,68,69,70,71,72,73,74,75,76,77,78,79,80,81,82,83,84,85,86,87,88,89,90,91,92,93,94,95,96,97,98,99,100,101,102,103,104,105,106,107,108,109,110,111,112,113,114,115,116,117,118,119,120,121,122,123,124,125,126,127,128,129,130,131,132,133,134,135,136,137,138,139,140,141,142,143,144,145,146,147,148,149,150,151,152,153,154,155,156,157,158,159,160,161,162,163,164,165,166,167,168,169,170,171,172,173,174,175,176,177,178,179,180,181,182,183,184,185,186,187,188,189,190,191,192,193,194,195,196,197,198,199,200],"tree_info":[0,0,0,0,0,0,0,0,0,0,0,0,0,0,0,0,0,0,0,0,0,0,0,0,0,0,0,0,0,0,0,0,0,0,0,0,0,0,0,0,0,0,0,0,0,0,0,0,0,0,0,0,0,0,0,0,0,0,0,0,0,0,0,0,0,0,0,0,0,0,0,0,0,0,0,0,0,0,0,0,0,0,0,0,0,0,0,0,0,0,0,0,0,0,0,0,0,0,0,0,0,0,0,0,0,0,0,0,0,0,0,0,0,0,0,0,0,0,0,0,0,0,0,0,0,0,0,0,0,0,0,0,0,0,0,0,0,0,0,0,0,0,0,0,0,0,0,0,0,0,0,0,0,0,0,0,0,0,0,0,0,0,0,0,0,0,0,0,0,0,0,0,0,0,0,0,0,0,0,0,0,0,0,0,0,0,0,0,0,0,0,0,0,0,0,0,0,0,0,0],"trees":[{"base_weights":[-1.1877424E-7,3.7688306E-1,-1.6144892E0,5.733995E-1,-1.1696562E0,-7.4974227E-1,-1.8495828E0,8.0586845E-1,5.8809716E-2,8.01821E-1,-1.4413649E0,-1.5607429E0,9.53121E-1,-1.9147419E0,-2.3165853E-1,8.642114E-1,-1.7171168E0,1.6736585E-1,-1.8855166E-1,-1.8718219E-1,1.4906285E0,-1.7969711E0,1.3107632E-1,-1.9520526E-1,1.8938725E-1,-1.7785893E-1,1.2522637E0,-1.9935769E-1,-1.3748893E0,1.886463E-1,-1.9109844E-1,2.4478407E-1,9.619297E-1,1.3327251E-1,-1.8203448E0,2.5458154E-1,-1.9645327E-1,1.9606437E-1,-1.7507988E-1,-1.4461122E0,-1.9694963E0,-1.9208887E-1,1.37007E0,-1.7655115E-1,1.593506E0,1.897868E-1,-1.9817196E-1,-1.9535542E-1,4.797492E-2,1.01504885E-1,-5.9300177E-3,-4.451544E-2,-1.8841115E-1,1.0082728E-2,1.167051E-1,-1.8326801E-1,-3.7588995E-2,-1.9797458E-1,-7.506847E-2,-1.805702E-1,1.9611904E-1,1.967356E-1,-1.0534483E-1],"categories":[],"categories_nodes":[],"categories_segments":[],"categories_sizes":[],"default_left":[0,0,0,0,0,0,0,0,0,0,0,0,0,0,0,0,0,0,0,0,0,0,0,0,0,0,0,0,0,0,0,0,0,0,0,0,0,0,0,0,0,0,0,0,0,0,0,0,0,0,0,0,0,0,0,0,0,0,0,0,0,0,0],"id":0,"left_children":[1,3,5,7,9,11,13,15,17,19,21,23,25,27,29,31,33,35,-1,-1,37,39,41,-1,-1,-1,43,-1,45,-1,-1,47,49,-1,51,53,-1,-1,-1,55,57,-1,59,-1,61,-1,-1,-1,-1,-1,-1,-1,-1,-1,-1,-1,-1,-1,-1,-1,-1,-1,-1],"loss_changes":[4.0019314E3,1.6212495E3,2.516665E2,5.659935E2,3.2335968E2,3.712564E2,1.0265967E2,4.8123975E2,3.1132507E2,1.3814963E2,2.9603638E2,2.4939096E2,7.3321144E1,3.7264404E1,1.4232861E2,1.9262622E2,2.5723358E1,2.601583E2,0E0,0E0,9.332036E1,2.3271484E1,2.5305533E2,0E0,0E0,0E0,8.416695E1,0E0,2.4804001E2,0E0,0E0,2.2588722E2,1.4933398E2,0E0,5.4750366E0,1.8822977E2,0E0,0E0,0E0,5.9713287E1,2.0928955E0,0E0,1.1993162E2,0E0,7.2826324E1,0E0,0E0,0E0,0E0,0E0,0E0,0E0,0E0,0E0,0E0,0E0,0E0,0E0,0E0,0E0,0E0,0E0,0E0],"parents":[2147483647,0,0,1,1,2,2,3,3,4,4,5,5,6,6,7,7,8,8,9,9,10,10,11,11,12,12,13,13,14,14,15,15,16,16,17,17,20,20,21,21,22,22,26,26,28,28,31,31,32,32,34,34,35,35,39,39,40,40,42,42,44,44],"right_children":[2,4,6,8,10,12,14,16,18,20,22,24,26,28,30,32,34,36,-1,-1,38,40,42,-1,-1,-1,44,-1,46,-1,-1,48,50,-1,52,54,-1,-1,-1,56,58,-1,60,-1,62,-1,-1,-1,-1,-1,-1,-1,-1,-1,-1,-1,-1,-1,-1,-1,-1,-1,-1],"split_conditions":[5.102885E-2,1.8394256E-2,-2.2123902E-1,-2.653977E-1,-3.7897432E-1,-1.4340417E-1,5.465489E0,-1.2570867E-1,1.6322782E0,-7.339012E-1,1.2408428E0,1.4619132E0,-1.3106943E0,1.6843342E0,-3.7047622E-1,-4.244918E-1,-6.1559224E-1,1.6980036E0,-1.8855166E-1,-1.8718219E-1,1.8480624E-1,-3.4463793E-1,-2.893772E-1,-1.9520526E-1,1.8938725E-1,-1.7785893E-1,-3.1577557E-1,-1.9935769E-1,1.8878255E0,1.886463E-1,-1.9109844E-1,-6.1559224E-1,-1.8096606E-1,1.3327251E-1,-1.9151576E-1,6.66877E-1,-1.9645327E-1,1.9606437E-1,-1.7507988E-1,4.7212997E-1,4.2686543E-1,-1.9208887E-1,2.5050737E-2,-1.7655115E-1,-4.1210082E-1,1.897868E-1,-1.9817196E-1,-1.9535542E-1,4.797492E-2,1.01504885E-1,-5.9300177E-3,-4.451544E-2,-1.8841115E-1,1.0082728E-2,1.167051E-1,-1.8326801E-1,-3.7588995E-2,-1.9797458E-1,-7.506847E-2,-1.805702E-1,1.9611904E-1,1.967356E-1,-1.0534483E-1],"split_indices":[3,5,5,4,4,9,4,2,4,4,7,4,7,4,7,3,4,7,0,0,5,2,2,0,0,0,6,0,4,0,0,4,2,0,3,4,0,0,0,6,2,0,5,0,4,0,0,0,0,0,0,0,0,0,0,0,0,0,0,0,0,0,0],"split_type":[0,0,0,0,0,0,0,0,0,0,0,0,0,0,0,0,0,0,0,0,0,0,0,0,0,0,0,0,0,0,0,0,0,0,0,0,0,0,0,0,0,0,0,0,0,0,0,0,0,0,0,0,0,0,0,0,0,0,0,0,0,0,0],"sum_hessian":[6.574999E3,5.331249E3,1.2437498E3,4.730749E3,6.004999E2,2.6674994E2,9.769998E2,3.2582495E3,1.4724998E3,7.2499985E1,5.279999E2,1.8074997E2,8.5999985E1,9.389998E2,3.7999992E1,3.1852495E3,7.2999985E1,1.3954998E3,7.6999985E1,1.4499997E1,5.799999E1,4.304999E2,9.7499985E1,1.6274997E2,1.7999996E1,7.9999986E0,7.7999985E1,8.169999E2,1.2199998E2,1.6749996E1,2.1249996E1,4.344999E2,2.7507495E3,1.9999996E0,7.0999985E1,1.3414998E3,5.399999E1,5.0999992E1,6.9999986E0,1.4499997E2,2.8549994E2,3.6499992E1,6.099999E1,7.4999986E0,7.0499985E1,1.8749996E1,1.03249985E2,4.1249992E1,3.9324994E2,2.6147495E3,1.3599997E2,3.4999993E0,6.7499985E1,1.1489998E3,1.9249997E2,1.05999985E2,3.8999992E1,2.8249994E2,2.9999995E0,9.249998E0,5.1749992E1,6.199999E1,8.499998E0],"tree_param":{"num_deleted":"0","num_feature":"10","num_nodes":"63","size_leaf_vector":"1"}},{"base_weights":[-3.7402724E-4,3.3991173E-1,-1.4680146E0,5.1708716E-1,-1.0636032E0,-6.8218315E-1,-1.6817743E0,7.2708875E-1,5.2787323E-2,7.2628444E-1,-1.3101251E0,-1.4183643E0,8.625335E-1,-1.7410736E0,-2.1046185E-1,7.7966774E-1,-1.5599029E0,1.5070479E-1,-1.7147364E-1,-1.7110221E-1,1.3549178E0,-1.63265E0,1.1732741E-1,-1.7751908E-1,1.7297418E-1,-1.6321988E-1,1.1362218E0,-1.8128197E-1,-1.2497766E0,1.7235012E-1,-1.7439912E-1,2.202328E-1,8.6801547E-1,1.2477436E-1,-1.6556594E0,2.293566E-1,-1.7889437E-1,1.785852E-1,-1.6086082E-1,-1.3113695E0,-1.7911882E0,-1.7499553E-1,1.2452857E0,-1.6211027E-1,1.4486349E0,1.7331056E-1,-1.8033415E-1,-1.7797391E-1,4.3216296E-2,1.2330506E-1,7.278784E-2,-4.1068844E-2,-1.7137454E-1,9.075604E-3,1.0547038E-1,-1.6652627E-1,-3.3935595E-2,-1.8038625E-1,-8.61213E-2,-1.6551712E-1,1.7863104E-1,1.7914805E-1,-9.616188E-2],"categories":[],"categories_nodes":[],"categories_segments":[],"categories_sizes":[],"default_left":[0,0,0,0,0,0,0,0,0,0,0,0,0,0,0,0,0,0,0,0,0,0,0,0,0,0,0,0,0,0,0,0,0,0,0,0,0,0,0,0,0,0,0,0,0,0,0,0,0,0,0,0,0,0,0,0,0,0,0,0,0,0,0],"id":1,"left_children":[1,3,5,7,9,11,13,15,17,19,21,23,25,27,29,31,33,35,-1,-1,37,39,41,-1,-1,-1,43,-1,45,-1,-1,47,49,-1,51,53,-1,-1,-1,55,57,-1,59,-1,61,-1,-1,-1,-1,-1,-1,-1,-1,-1,-1,-1,-1,-1,-1,-1,-1,-1,-1],"loss_changes":[3.271143E3,1.3227454E3,2.0594043E2,4.6035413E2,2.6407013E2,3.0293973E2,8.41333E1,3.9216333E2,2.5495287E2,1.1390733E2,2.4165497E2,2.053389E2,6.0747963E1,3.0545166E1,1.1766146E2,1.5691956E2,2.1799332E1,2.1327106E2,0E0,0E0,7.752555E1,1.9445312E1,2.0773598E2,0E0,0E0,0E0,6.981318E1,0E0,2.0429773E2,0E0,0E0,1.8509393E2,1.3951782E2,0E0,4.460129E0,1.5339774E2,0E0,0E0,0E0,4.9351303E1,1.7911377E0,0E0,9.934863E1,0E0,6.0290146E1,0E0,0E0,0E0,0E0,0E0,0E0,0E0,0E0,0E0,0E0,0E0,0E0,0E0,0E0,0E0,0E0,0E0,0E0],"parents":[2147483647,0,0,1,1,2,2,3,3,4,4,5,5,6,6,7,7,8,8,9,9,10,10,11,11,12,12,13,13,14,14,15,15,16,16,17,17,20,20,21,21,22,22,26,26,28,28,31,31,32,32,34,34,35,35,39,39,40,40,42,42,44,44],"right_children":[2,4,6,8,10,12,14,16,18,20,22,24,26,28,30,32,34,36,-1,-1,38,40,42,-1,-1,-1,44,-1,46,-1,-1,48,50,-1,52,54,-1,-1,-1,56,58,-1,60,-1,62,-1,-1,-1,-1,-1,-1,-1,-1,-1,-1,-1,-1,-1,-1,-1,-1,-1,-1],"split_conditions":[5.102885E-2,1.8394256E-2,-2.2123902E-1,-2.653977E-1,-3.7897432E-1,-1.4340417E-1,5.465489E0,-1.2570867E-1,1.6322782E0,-7.339012E-1,1.2408428E0,1.4619132E0,-1.3106943E0,1.6843342E0,-3.7047622E-1,-4.244918E-1,-6.1559224E-1,1.6980036E0,-1.7147364E-1,-1.7110221E-1,1.8480624E-1,-3.4463793E-1,-2.893772E-1,-1.7751908E-1,1.7297418E-1,-1.6321988E-1,-3.1577557E-1,-1.8128197E-1,1.8878255E0,1.7235012E-1,-1.7439912E-1,-6.1559224E-1,-3.467383E-1,1.2477436E-1,-1.9151576E-1,6.66877E-1,-1.7889437E-1,1.785852E-1,-1.6086082E-1,4.7212997E-1,2.2425492E-1,-1.7499553E-1,2.5050737E-2,-1.6211027E-1,-4.1210082E-1,1.7331056E-1,-1.8033415E-1,-1.7797391E-1,4.3216296E-2,1.2330506E-1,7.278784E-2,-4.1068844E-2,-1.7137454E-1,9.075604E-3,1.0547038E-1,-1.6652627E-1,-3.3935595E-2,-1.8038625E-1,-8.61213E-2,-1.6551712E-1,1.7863104E-1,1.7914805E-1,-9.616188E-2],"split_indices":[3,5,5,4,4,9,4,2,4,4,7,4,7,4,7,3,4,7,0,0,5,2,2,0,0,0,6,0,4,0,0,4,2,0,3,4,0,0,0,6,2,0,5,0,4,0,0,0,0,0,0,0,0,0,0,0,0,0,0,0,0,0,0],"split_type":[0,0,0,0,0,0,0,0,0,0,0,0,0,0,0,0,0,0,0,0,0,0,0,0,0,0,0,0,0,0,0,0,0,0,0,0,0,0,0,0,0,0,0,0,0,0,0,0,0,0,0,0,0,0,0,0,0,0,0,0,0,0,0],"sum_hessian":[6.5479214E3,5.316103E3,1.2318184E3,4.720796E3,5.953073E2,2.6431714E2,9.6750116E2,3.2501816E3,1.4706144E3,7.183061E1,5.234767E2,1.7906169E2,8.525544E1,9.2984174E2,3.7659424E1,3.177782E3,7.239957E1,1.3942881E3,7.632619E1,1.437495E1,5.7455666E1,4.2688144E2,9.659525E1,1.6122368E2,1.7838017E1,7.937706E0,7.731773E1,8.090091E2,1.2083264E2,1.660043E1,2.1058996E1,4.338777E2,2.7439043E3,1.9910241E0,7.040855E1,1.340801E3,5.3487087E1,5.0508484E1,6.9471827E0,1.4411053E2,2.827709E2,3.6168518E1,6.042674E1,7.442455E0,6.987528E1,1.858056E1,1.0225208E2,4.086255E1,3.9301514E2,7.590079E2,1.9848965E3,3.498337E0,6.691021E1,1.1489653E3,1.9183577E2,1.0512364E2,3.898689E1,2.7804193E2,4.728999E0,9.175759E0,5.125098E1,6.1398415E1,8.476867E0],"tree_param":{"num_deleted":"0","num_feature":"10","num_nodes":"63","size_leaf_vector":"1"}},{"base_weights":[-9.3173556E-4,4.0652415E-1,-1.0315994E0,5.501468E-1,-1.0186857E0,-4.6249643E-1,-1.354682E0,7.362287E-1,7.289473E-2,-1.3329266E0,4.459102E-1,9.217275E-2,-1.0042387E0,-6.922247E-3,-1.4683057E0,-6.0903165E-2,7.9761237E-1,9.825589E-1,-9.953582E-2,6.257414E-1,-1.4674295E0,1.2850497E0,-1.6265912E-1,5.9137094E-1,-1.1102629E0,-6.733773E-1,-1.7667723E0,1.1801054E0,-1.642177E-1,1.5933363E-1,-1.5093327E0,-9.661008E-1,1.4632974E0,6.403094E-1,1.1229243E0,1.5001084E0,-1.6864345E0,-1.9378712E0,1.09675765E-1,1.5843484E-1,-1.481099E-1,-1.6412565E0,-1.1375579E0,1.6558778E-1,-1.4530201E-1,8.783572E-1,-1.6047712E-1,-1.6987551E0,1.5926476E-1,-1.0714556E0,1.7458248E-1,1.1746351E-1,-1.8367521E-1,-1.5109909E-1,1.6496953E-1,-1.6701707E0,-6.6250205E-1,6.6685E-2,-1.9384368E-1,1.8031542E-1,-1.8020307E-1,8.458157E-2,2.6264494E-2,-2.044343E-1,1.1738862E-1,1.7112179E-1,-1.7255862E-1,-1.8543254E-1,1.03515245E-1,6.555532E-2,-1.9765823E-1,2.7014494E-2,-9.985771E-2,-1.0342522E-1,-1.6982402E-1,-1.646189E-1,1.8452293E-1,-1.7333739E-1,1.11293495E-1,-1.09689E-2,-1.7735305E-1,-1.8390694E-1,-4.9082268E-2,-1.6744104E-1,-1.031152E-1,1.6484635E-1,-1.2727083E-1],"categories":[],"categories_nodes":[],"categories_segments":[],"categories_sizes":[],"default_left":[0,0,0,0,0,0,0,0,0,0,0,0,0,0,0,0,0,0,0,0,0,0,0,0,0,0,0,0,0,0,0,0,0,0,0,0,0,0,0,0,0,0,0,0,0,0,0,0,0,0,0,0,0,0,0,0,0,0,0,0,0,0,0,0,0,0,0,0,0,0,0,0,0,0,0,0,0,0,0,0,0,0,0,0,0,0,0],"id":2,"left_children":[1,3,5,7,9,11,13,15,17,19,21,23,25,27,29,31,33,35,37,39,41,43,-1,45,47,49,51,53,-1,-1,55,57,59,61,63,65,67,69,71,-1,-1,73,75,-1,-1,77,-1,79,-1,81,-1,-1,-1,-1,-1,83,85,-1,-1,-1,-1,-1,-1,-1,-1,-1,-1,-1,-1,-1,-1,-1,-1,-1,-1,-1,-1,-1,-1,-1,-1,-1,-1,-1,-1,-1,-1],"loss_changes":[2.7214072E3,9.512061E2,3.3695837E2,3.74693E2,1.9643454E2,2.003343E2,1.7925806E2,1.4859753E2,1.8594673E2,9.328296E1,1.3412393E2,1.9884953E2,8.3885254E1,1.805623E2,1.3801514E2,3.021812E2,1.4353088E2,2.6346024E2,3.836432E2,4.9262604E1,1.6961975E1,5.7842613E1,0E0,1.4887268E2,1.5733347E2,2.2990106E2,2.3034271E1,7.06074E1,0E0,0E0,1.4406519E2,2.1940822E2,9.382971E1,1.4743024E2,1.5048718E2,1.1105499E2,1.6153282E1,1.1527832E1,1.5962144E2,0E0,0E0,5.603882E0,1.799052E2,0E0,0E0,1.2910147E2,0E0,9.348618E0,0E0,8.99966E1,0E0,0E0,0E0,0E0,0E0,6.982422E-1,2.4433936E2,0E0,0E0,0E0,0E0,0E0,0E0,0E0,0E0,0E0,0E0,0E0,0E0,0E0,0E0,0E0,0E0,0E0,0E0,0E0,0E0,0E0,0E0,0E0,0E0,0E0,0E0,0E0,0E0,0E0,0E0],"parents":[2147483647,0,0,1,1,2,2,3,3,4,4,5,5,6,6,7,7,8,8,9,9,10,10,11,11,12,12,13,13,14,14,15,15,16,16,17,17,18,18,19,19,20,20,21,21,23,23,24,24,25,25,26,26,27,27,30,30,31,31,32,32,33,33,34,34,35,35,36,36,37,37,38,38,41,41,42,42,45,45,47,47,49,49,55,55,56,56],"right_children":[2,4,6,8,10,12,14,16,18,20,22,24,26,28,30,32,34,36,38,40,42,44,-1,46,48,50,52,54,-1,-1,56,58,60,62,64,66,68,70,72,-1,-1,74,76,-1,-1,78,-1,80,-1,82,-1,-1,-1,-1,-1,84,86,-1,-1,-1,-1,-1,-1,-1,-1,-1,-1,-1,-1,-1,-1,-1,-1,-1,-1,-1,-1,-1,-1,-1,-1,-1,-1,-1,-1,-1,-1],"split_conditions":[-1.8096606E-1,1.8394256E-2,5.102885E-2,-2.653977E-1,1.0400175E0,-2.764544E-1,-5.663546E-1,-6.1559224E-1,-1.0050153E0,-3.7897432E-1,7.904534E-3,-3.4857582E-2,2.1330093E-1,5.1896113E-1,-3.610251E-1,-3.4463793E-1,5.4512054E-1,-1.9652501E-1,-8.4224343E-1,-3.7877932E-1,7.236653E-1,1.7920254E0,-1.6265912E-1,8.751008E-1,-1.8467075E-1,1.1046747E0,-6.1559224E-1,-7.57563E-1,-1.642177E-1,1.5933363E-1,1.6843342E0,-2.9655686E-1,2.1330093E-1,-2.4337345E-1,-3.1577557E-1,-1.8130013E-1,-1.1328298E0,-1.028629E0,-3.1278807E-1,1.5843484E-1,-1.481099E-1,-1.4967658E-1,4.1250467E-1,1.6558778E-1,-1.4530201E-1,-2.4120845E-1,-1.6047712E-1,-3.331529E-1,1.5926476E-1,-1.9226606E-1,1.7458248E-1,1.1746351E-1,-1.8367521E-1,-1.5109909E-1,1.6496953E-1,1.2956465E0,1.8878255E0,6.6685E-2,-1.9384368E-1,1.8031542E-1,-1.8020307E-1,8.458157E-2,2.6264494E-2,-2.044343E-1,1.1738862E-1,1.7112179E-1,-1.7255862E-1,-1.8543254E-1,1.03515245E-1,6.555532E-2,-1.9765823E-1,2.7014494E-2,-9.985771E-2,-1.0342522E-1,-1.6982402E-1,-1.646189E-1,1.8452293E-1,-1.7333739E-1,1.11293495E-1,-1.09689E-2,-1.7735305E-1,-1.8390694E-1,-4.9082268E-2,-1.6744104E-1,-1.031152E-1,1.6484635E-1,-1.2727083E-1],"split_indices":[2,5,3,4,8,7,4,4,8,4,6,5,9,2,5,2,9,6,9,2,4,7,0,4,8,8,4,4,0,0,4,5,9,6,6,5,8,7,3,0,0,6,6,0,0,5,0,3,0,6,0,0,0,0,0,8,4,0,0,0,0,0,0,0,0,0,0,0,0,0,0,0,0,0,0,0,0,0,0,0,0,0,0,0,0,0,0],"split_type":[0,0,0,0,0,0,0,0,0,0,0,0,0,0,0,0,0,0,0,0,0,0,0,0,0,0,0,0,0,0,0,0,0,0,0,0,0,0,0,0,0,0,0,0,0,0,0,0,0,0,0,0,0,0,0,0,0,0,0,0,0,0,0,0,0,0,0,0,0,0,0,0,0,0,0,0,0,0,0,0,0,0,0,0,0,0,0],"sum_hessian":[6.478289E3,4.6432637E3,1.8350253E3,4.2187427E3,4.2452133E2,6.65389E2,1.1696362E3,3.0348887E3,1.1838539E3,3.496014E2,7.4919914E1,3.2918198E2,3.3620697E2,9.102259E1,1.0786136E3,2.1699445E2,2.817894E3,1.878971E2,9.959568E2,2.2229988E1,3.2737143E2,5.3598324E1,2.1321589E1,2.3297092E2,9.621105E1,2.3578397E2,1.00423004E2,5.2900543E1,3.8122047E1,1.3762337E1,1.0648513E3,1.3637169E2,8.062275E1,1.9014335E3,9.164607E2,1.5774619E2,3.0150908E1,1.0091932E2,8.950375E2,1.5448815E1,6.7811728E0,2.1179166E2,1.1557977E2,4.755323E1,6.045092E0,2.0657613E2,2.6394796E1,7.931391E1,1.6897142E1,2.0294637E2,3.2837605E1,1.9668412E0,9.845616E1,7.5300603E0,4.5370483E1,8.9406915E2,1.7078218E2,5.101342E1,8.535828E1,7.342811E1,7.194645E0,1.2305757E3,6.708578E2,1.3893107E1,9.0256757E2,1.4849712E2,9.249068E0,2.8699158E1,1.4517503E0,1.2498741E0,9.966944E1,7.8249286E2,1.1254461E2,1.9819508E1,1.9197215E2,9.91249E1,1.6454876E1,1.6498339E1,1.9007779E2,3.6753466E0,7.5638565E1,8.646704E1,1.1647933E2,8.865668E2,7.502413E0,3.531942E1,1.3546275E2],"tree_param":{"num_deleted":"0","num_feature":"10","num_nodes":"87","size_leaf_vector":"1"}},{"base_weights":[-1.4562117E-3,2.802271E-1,-1.2700607E0,4.2601386E-1,-9.240791E-1,-5.9282225E-1,-1.4547086E0,6.0398996E-1,5.9004165E-2,6.122153E-1,-1.1351634E0,-1.2256888E0,7.2335875E-1,-1.5124398E0,-7.1026E-2,6.508621E-1,-1.4274019E0,1.3901372E-1,-1.5135528E0,-1.5252726E-1,1.174271E0,-1.408927E0,9.0987615E-2,-1.5357257E-1,1.5004078E-1,-1.5643924E-1,9.709906E-1,-1.5720718E-1,-1.1068294E0,1.6886482E-1,-1.5348074E-1,1.388479E-1,7.3389965E-1,1.1109346E-1,-1.5142988E0,2.0623387E-1,-1.6093386E0,-1.15487E0,-1.610561E-1,1.551982E-1,-1.3959137E-1,-1.1340238E0,-1.5579717E0,1.2071548E0,-1.5629077E-1,-1.4227305E-1,1.2615536E0,1.5032113E-1,-1.5883233E-1,8.453523E-2,-4.274487E-2,1.0833924E-1,6.027716E-2,-3.272446E-2,-1.5719648E-1,8.844274E-3,9.528761E-2,-9.280918E-2,-1.6571201E-1,-1.4970843E-1,1.492E-1,-1.4367911E-1,-2.7403308E-2,-1.5701793E-1,-6.064992E-2,-1.2795728E-1,1.5545659E-1,1.5585004E-1,-7.6319814E-2],"categories":[],"categories_nodes":[],"categories_segments":[],"categories_sizes":[],"default_left":[0,0,0,0,0,0,0,0,0,0,0,0,0,0,0,0,0,0,0,0,0,0,0,0,0,0,0,0,0,0,0,0,0,0,0,0,0,0,0,0,0,0,0,0,0,0,0,0,0,0,0,0,0,0,0,0,0,0,0,0,0,0,0,0,0,0,0,0,0],"id":3,"left_children":[1,3,5,7,9,11,13,15,17,19,21,23,25,27,29,31,33,35,37,-1,39,41,43,-1,-1,-1,45,-1,47,-1,-1,49,51,-1,53,55,57,59,-1,-1,-1,61,63,65,-1,-1,67,-1,-1,-1,-1,-1,-1,-1,-1,-1,-1,-1,-1,-1,-1,-1,-1,-1,-1,-1,-1,-1,-1],"loss_changes":[2.2818794E3,9.1782715E2,1.442284E2,3.044704E2,1.8377762E2,2.093429E2,7.2664795E1,2.9983997E2,1.9189949E2,8.4506424E1,1.6686444E2,1.4545303E2,4.7910713E1,1.9410645E1,9.92773E1,1.3038916E2,1.7368484E1,1.7082204E2,7.094879E-1,0E0,5.563742E1,1.4873108E1,1.7098271E2,0E0,0E0,0E0,5.3617027E1,0E0,1.4749109E2,0E0,0E0,1.7221219E2,1.20364136E2,0E0,4.221451E0,1.2285393E2,2.1406555E-1,1.9674585E1,0E0,0E0,0E0,3.773889E1,2.0754395E0,4.972496E1,0E0,0E0,4.1456314E1,0E0,0E0,0E0,0E0,0E0,0E0,0E0,0E0,0E0,0E0,0E0,0E0,0E0,0E0,0E0,0E0,0E0,0E0,0E0,0E0,0E0,0E0],"parents":[2147483647,0,0,1,1,2,2,3,3,4,4,5,5,6,6,7,7,8,8,9,9,10,10,11,11,12,12,13,13,14,14,15,15,16,16,17,17,18,18,20,20,21,21,22,22,26,26,28,28,31,31,32,32,34,34,35,35,36,36,37,37,41,41,42,42,43,43,46,46],"right_children":[2,4,6,8,10,12,14,16,18,20,22,24,26,28,30,32,34,36,38,-1,40,42,44,-1,-1,-1,46,-1,48,-1,-1,50,52,-1,54,56,58,60,-1,-1,-1,62,64,66,-1,-1,68,-1,-1,-1,-1,-1,-1,-1,-1,-1,-1,-1,-1,-1,-1,-1,-1,-1,-1,-1,-1,-1,-1],"split_conditions":[5.102885E-2,1.8394256E-2,-2.2123902E-1,-2.7013007E-1,-3.7897432E-1,-1.4340417E-1,5.465489E0,-1.2570867E-1,1.6322782E0,-7.339012E-1,1.0400175E0,1.4619132E0,-3.1577557E-1,1.6843342E0,-3.7047622E-1,-4.244918E-1,-6.1559224E-1,1.6980036E0,1.8878255E0,-1.5252726E-1,1.8480624E-1,-3.4463793E-1,7.904534E-3,-1.5357257E-1,1.5004078E-1,-1.5643924E-1,-1.3106943E0,-1.5720718E-1,1.8878255E0,1.6886482E-1,-1.5348074E-1,-4.594842E-1,-3.467383E-1,1.1109346E-1,-1.9151576E-1,6.66877E-1,-2.6467428E-1,1.6843342E0,-1.610561E-1,1.551982E-1,-1.3959137E-1,4.7212997E-1,1.1374011E-1,-3.331529E-1,-1.5629077E-1,-1.4227305E-1,-4.1210082E-1,1.5032113E-1,-1.5883233E-1,8.453523E-2,-4.274487E-2,1.0833924E-1,6.027716E-2,-3.272446E-2,-1.5719648E-1,8.844274E-3,9.528761E-2,-9.280918E-2,-1.6571201E-1,-1.4970843E-1,1.492E-1,-1.4367911E-1,-2.7403308E-2,-1.5701793E-1,-6.064992E-2,-1.2795728E-1,1.5545659E-1,1.5585004E-1,-7.6319814E-2],"split_indices":[3,5,5,4,4,9,4,2,4,4,8,4,6,4,7,3,4,7,4,0,5,2,6,0,0,0,7,0,4,0,0,4,2,0,3,4,4,4,0,0,0,6,2,3,0,0,4,0,0,0,0,0,0,0,0,0,0,0,0,0,0,0,0,0,0,0,0,0,0],"split_type":[0,0,0,0,0,0,0,0,0,0,0,0,0,0,0,0,0,0,0,0,0,0,0,0,0,0,0,0,0,0,0,0,0,0,0,0,0,0,0,0,0,0,0,0,0,0,0,0,0,0,0,0,0,0,0,0,0,0,0,0,0,0,0,0,0,0,0,0,0],"sum_hessian":[6.3836567E3,5.2244004E3,1.1592565E3,4.6608315E3,5.6356866E2,2.4925757E2,9.0999896E2,3.138308E3,1.5225236E3,6.784986E1,4.9571884E2,1.6836868E2,8.088889E1,8.7346246E2,3.653644E1,3.0681926E3,7.011551E1,1.4496775E3,7.284602E1,1.3769803E1,5.4080055E1,4.0511868E2,9.060015E1,1.5156766E2,1.6801018E1,7.3810964E0,7.35078E1,7.590003E2,1.1446221E2,1.6521555E1,2.0014887E1,4.285293E2,2.6396633E3,1.930793E0,6.8184715E1,1.3968536E3,5.2823784E1,1.8254803E1,5.459122E1,4.749623E1,6.583824E0,1.4545158E2,2.5966708E2,5.425506E1,3.634509E1,7.535149E0,6.597265E1,1.749653E1,9.696568E1,1.9044267E2,2.3808662E2,7.181994E2,1.9214639E3,3.4681237E0,6.471659E1,1.2074789E3,1.8937479E2,4.8007374E0,4.8023045E1,1.654951E1,1.7052941E0,1.07081795E2,3.836979E1,2.5573567E2,3.9314277E0,6.3217273E0,4.793333E1,5.7735527E1,8.23712E0],"tree_param":{"num_deleted":"0","num_feature":"10","num_nodes":"69","size_leaf_vector":"1"}},{"base_weights":[-2.094672E-3,2.5496155E-1,-1.2001948E0,3.8670167E-1,-8.696704E-1,-5.5948335E-1,-1.3753506E0,5.493391E-1,5.2987814E-2,5.7497257E-1,-1.0675365E0,-1.15687E0,6.768252E-1,-1.4306061E0,-6.650206E-2,5.917156E-1,-1.331274E0,1.2537593E-1,-1.4235163E0,-1.4375588E-1,1.107895E0,-1.3235674E0,8.445697E-2,-1.4506869E-1,1.4192818E-1,-1.4608471E-1,9.1238976E-1,-1.4875509E-1,-1.0439572E0,1.5703553E-1,-1.4489512E-1,-1.2880683E-1,6.4608645E-1,1.0547916E-1,-1.4142675E0,1.8612246E-1,-1.5067245E0,-1.080582E0,-1.5161821E-1,1.4682363E-1,-1.3203071E-1,-1.4589549E0,-1.0159504E0,1.1384612E0,-1.475996E-1,-1.3448654E-1,1.1879747E0,1.4219701E-1,-1.4997412E-1,-9.608661E-2,1.310179E-1,5.2038826E-2,9.000117E-2,-3.0252611E-2,-1.4700852E-1,8.665695E-3,1.0305744E-1,-8.6380646E-2,-1.5526439E-1,-1.4164235E-1,1.3818412E-1,-7.998767E-2,-1.4977887E-1,-1.4475259E-1,1.8024714E-1,-1.2979582E-1,1.4574985E-1,1.474303E-1,-7.047499E-2],"categories":[],"categories_nodes":[],"categories_segments":[],"categories_sizes":[],"default_left":[0,0,0,0,0,0,0,0,0,0,0,0,0,0,0,0,0,0,0,0,0,0,0,0,0,0,0,0,0,0,0,0,0,0,0,0,0,0,0,0,0,0,0,0,0,0,0,0,0,0,0,0,0,0,0,0,0,0,0,0,0,0,0,0,0,0,0,0,0],"id":4,"left_children":[1,3,5,7,9,11,13,15,17,19,21,23,25,27,29,31,33,35,37,-1,39,41,43,-1,-1,-1,45,-1,47,-1,-1,49,51,-1,53,55,57,59,-1,-1,-1,61,63,65,-1,-1,67,-1,-1,-1,-1,-1,-1,-1,-1,-1,-1,-1,-1,-1,-1,-1,-1,-1,-1,-1,-1,-1,-1],"loss_changes":[1.931809E3,7.65502E2,1.235813E2,2.5091614E2,1.5549744E2,1.7771863E2,6.2786987E1,2.4851764E2,1.6222305E2,7.229712E1,1.4077734E2,1.2459732E2,4.0952343E1,1.6814453E1,8.4347084E1,1.19204346E2,1.5117943E1,1.4366109E2,6.1590576E-1,0E0,4.8038094E1,1.4770996E1,1.4585954E2,0E0,0E0,0E0,4.6065895E1,0E0,1.2626262E2,0E0,0E0,2.5771008E2,8.978064E1,0E0,3.7082062E0,1.1709673E2,1.9411469E-1,1.7315418E1,0E0,0E0,0E0,5.679077E0,1.5168753E2,4.3000427E1,0E0,0E0,3.5852127E1,0E0,0E0,0E0,0E0,0E0,0E0,0E0,0E0,0E0,0E0,0E0,0E0,0E0,0E0,0E0,0E0,0E0,0E0,0E0,0E0,0E0,0E0],"parents":[2147483647,0,0,1,1,2,2,3,3,4,4,5,5,6,6,7,7,8,8,9,9,10,10,11,11,12,12,13,13,14,14,15,15,16,16,17,17,18,18,20,20,21,21,22,22,26,26,28,28,31,31,32,32,34,34,35,35,36,36,37,37,41,41,42,42,43,43,46,46],"right_children":[2,4,6,8,10,12,14,16,18,20,22,24,26,28,30,32,34,36,38,-1,40,42,44,-1,-1,-1,46,-1,48,-1,-1,50,52,-1,54,56,58,60,-1,-1,-1,62,64,66,-1,-1,68,-1,-1,-1,-1,-1,-1,-1,-1,-1,-1,-1,-1,-1,-1,-1,-1,-1,-1,-1,-1,-1,-1],"split_conditions":[5.102885E-2,1.8394256E-2,-2.2123902E-1,-2.7013007E-1,-3.7897432E-1,-1.4340417E-1,5.465489E0,-1.2570867E-1,1.6322782E0,-7.339012E-1,1.0400175E0,1.4619132E0,-3.1577557E-1,1.6843342E0,-3.7047622E-1,-6.1559224E-1,-6.1559224E-1,1.6980036E0,1.8878255E0,-1.4375588E-1,1.8480624E-1,9.224244E-1,7.904534E-3,-1.4506869E-1,1.4192818E-1,-1.4608471E-1,-1.3106943E0,-1.4875509E-1,1.8878255E0,1.5703553E-1,-1.4489512E-1,-3.4463793E-1,5.4512054E-1,1.0547916E-1,-1.9151576E-1,-1.2570867E-1,-2.6467428E-1,1.6843342E0,-1.5161821E-1,1.4682363E-1,-1.3203071E-1,-3.658249E-1,4.1250467E-1,-3.6313128E-1,-1.475996E-1,-1.3448654E-1,-4.1210082E-1,1.4219701E-1,-1.4997412E-1,-9.608661E-2,1.310179E-1,5.2038826E-2,9.000117E-2,-3.0252611E-2,-1.4700852E-1,8.665695E-3,1.0305744E-1,-8.6380646E-2,-1.5526439E-1,-1.4164235E-1,1.3818412E-1,-7.998767E-2,-1.4977887E-1,-1.4475259E-1,1.8024714E-1,-1.2979582E-1,1.4574985E-1,1.474303E-1,-7.047499E-2],"split_indices":[3,5,5,4,4,9,4,2,4,4,8,4,6,4,7,4,4,7,4,0,5,4,6,0,0,0,7,0,4,0,0,2,9,0,3,2,4,4,0,0,0,2,6,2,0,0,4,0,0,0,0,0,0,0,0,0,0,0,0,0,0,0,0,0,0,0,0,0,0],"split_type":[0,0,0,0,0,0,0,0,0,0,0,0,0,0,0,0,0,0,0,0,0,0,0,0,0,0,0,0,0,0,0,0,0,0,0,0,0,0,0,0,0,0,0,0,0,0,0,0,0,0,0,0,0,0,0,0,0,0,0,0,0,0,0,0,0,0,0,0,0],"sum_hessian":[6.270539E3,5.1634844E3,1.1070548E3,4.622641E3,5.4084314E2,2.3857025E2,8.6848456E2,3.1075244E3,1.5151167E3,6.492348E1,4.7591965E2,1.6089145E2,7.76788E1,8.3321576E2,3.526883E1,3.0397148E3,6.78095E1,1.4451794E3,6.993729E1,1.3237145E1,5.168633E1,3.89258E2,8.666164E1,1.4481212E2,1.607932E1,7.1940093E0,7.0484795E1,7.237729E2,1.0944284E2,1.6086296E1,1.9182535E1,2.1318741E2,2.8265276E3,1.8857175E0,6.592379E1,1.3941744E3,5.1004997E1,1.7571278E1,5.236601E1,4.535157E1,6.3347616E0,2.6769708E2,1.2156092E2,5.1885876E1,3.477576E1,7.2469115E0,6.323788E1,1.674228E1,9.270056E1,1.3529092E2,7.789649E1,1.8926677E3,9.338598E2,3.458551E0,6.2465237E1,1.2482494E3,1.4592502E2,4.720771E0,4.628423E1,1.5836215E1,1.7350624E0,1.6097132E1,2.5159996E2,1.0584035E2,1.5720571E1,5.652279E0,4.6233597E1,5.5120422E1,8.117459E0],"tree_param":{"num_deleted":"0","num_feature":"10","num_nodes":"69","size_leaf_vector":"1"}},{"base_weights":[-2.719933E-3,3.1285414E-1,-8.6179787E-1,4.1893277E-1,-8.483268E-1,-4.0831554E-1,-1.1402383E0,5.6135213E-1,6.1000634E-2,-1.10608E0,3.6674005E-1,1.03112616E-1,-9.0815794E-1,-4.9852252E-1,-1.3111838E0,7.7383496E-2,6.4299417E-1,8.8920647E-1,-9.419183E-2,5.21422E-1,-1.2167051E0,1.076279E0,-1.3725124E-1,5.3756183E-1,-1.009646E0,-5.980333E-1,-1.6268371E0,-1.1043737E0,8.56988E-1,-1.3656191E0,-6.275678E-2,7.4151045E-1,-4.4747445E-1,9.4161457E-1,5.2236354E-1,1.3440148E0,-1.52368E0,-1.7818816E0,9.7786956E-2,1.334578E-1,-1.24117196E-1,-1.3781868E0,-9.1197395E-1,1.3996498E-1,-1.23505965E-1,-1.548084E-1,7.7086616E-1,-1.5021178E0,1.3421492E-1,-9.322684E-1,1.5097943E-1,1.0047956E-1,-1.6891403E0,-1.3927113E-1,1.3519327E-1,-1.2790237E-1,1.1223968E0,-1.4212647E-1,-9.9296755E-1,1.4756966E-1,-1.3782191E-1,-1.5556106E-1,1.3398747E-1,-1.9858092E-1,4.318958E-2,-6.5136015E-2,1.1698391E-1,-5.2172042E-2,6.411766E-2,-1.8694744E-1,1.5278372E-1,-1.6772161E-1,8.476371E-2,6.103195E-2,-1.8178686E-1,1.7690788E-1,6.165359E-4,-7.696644E-2,-1.4377542E-1,-1.3861774E-1,1.5664786E-1,9.801125E-2,-1.3248709E-1,5.1870174E-3,-1.5813236E-1,-1.6952492E-1,-3.485493E-2,-1.849997E-1,-1.3533972E-1,1.4043894E-1,-6.516886E-2,1.3536082E-1,-1.4268339E-1],"categories":[],"categories_nodes":[],"categories_segments":[],"categories_sizes":[],"default_left":[0,0,0,0,0,0,0,0,0,0,0,0,0,0,0,0,0,0,0,0,0,0,0,0,0,0,0,0,0,0,0,0,0,0,0,0,0,0,0,0,0,0,0,0,0,0,0,0,0,0,0,0,0,0,0,0,0,0,0,0,0,0,0,0,0,0,0,0,0,0,0,0,0,0,0,0,0,0,0,0,0,0,0,0,0,0,0,0,0,0,0,0,0],"id":5,"left_children":[1,3,5,7,9,11,13,15,17,19,21,23,25,27,29,31,33,35,37,39,41,43,-1,45,47,49,51,53,55,57,59,61,63,65,67,69,71,73,75,-1,-1,77,79,-1,-1,-1,81,83,-1,85,-1,-1,87,-1,-1,-1,89,-1,91,-1,-1,-1,-1,-1,-1,-1,-1,-1,-1,-1,-1,-1,-1,-1,-1,-1,-1,-1,-1,-1,-1,-1,-1,-1,-1,-1,-1,-1,-1,-1,-1,-1,-1],"loss_changes":[1.6659062E3,5.5392004E2,2.0798413E2,2.0991553E2,1.1832599E2,1.6103558E2,1.11487915E2,1.1635858E2,1.5090541E2,5.6604736E1,8.37203E1,1.514148E2,7.001413E1,1.7886862E2,5.473108E1,1.4896014E2,9.031238E1,2.0537053E2,3.2065845E2,3.1018087E1,1.3081818E1,3.7525787E1,0E0,1.10726425E2,1.0391238E2,1.5926794E2,1.7343475E1,1.0823726E2,3.9693996E1,1.4615112E1,7.235967E1,2.613178E2,3.2388696E2,2.6399304E2,2.2334073E2,9.5257416E1,1.2290642E1,9.811096E0,1.3612903E2,0E0,0E0,5.7263184E0,1.24264854E2,0E0,0E0,0E0,9.037339E1,9.093964E0,0E0,8.5819916E1,0E0,0E0,2.5509033E0,0E0,0E0,0E0,3.1211716E1,0E0,1.0754103E2,0E0,0E0,0E0,0E0,0E0,0E0,0E0,0E0,0E0,0E0,0E0,0E0,0E0,0E0,0E0,0E0,0E0,0E0,0E0,0E0,0E0,0E0,0E0,0E0,0E0,0E0,0E0,0E0,0E0,0E0,0E0,0E0,0E0,0E0],"parents":[2147483647,0,0,1,1,2,2,3,3,4,4,5,5,6,6,7,7,8,8,9,9,10,10,11,11,12,12,13,13,14,14,15,15,16,16,17,17,18,18,19,19,20,20,21,21,23,23,24,24,25,25,26,26,27,27,28,28,29,29,30,30,31,31,32,32,33,33,34,34,35,35,36,36,37,37,38,38,41,41,42,42,46,46,47,47,49,49,52,52,56,56,58,58],"right_children":[2,4,6,8,10,12,14,16,18,20,22,24,26,28,30,32,34,36,38,40,42,44,-1,46,48,50,52,54,56,58,60,62,64,66,68,70,72,74,76,-1,-1,78,80,-1,-1,-1,82,84,-1,86,-1,-1,88,-1,-1,-1,90,-1,92,-1,-1,-1,-1,-1,-1,-1,-1,-1,-1,-1,-1,-1,-1,-1,-1,-1,-1,-1,-1,-1,-1,-1,-1,-1,-1,-1,-1,-1,-1,-1,-1,-1,-1],"split_conditions":[-1.8096606E-1,1.8394256E-2,5.102885E-2,-2.653977E-1,1.0400175E0,-2.764544E-1,-2.2123902E-1,-4.244918E-1,-1.0050153E0,-3.7897432E-1,7.904534E-3,-3.4857582E-2,2.1330093E-1,-1.4340417E-1,5.465489E0,-4.594842E-1,-3.467383E-1,-1.9652501E-1,-8.4224343E-1,-3.7877932E-1,7.236653E-1,1.7920254E0,-1.3725124E-1,-2.3831892E-1,-1.8467075E-1,1.1046747E0,-6.1559224E-1,1.4619132E0,-1.3106943E0,1.6843342E0,-3.7047622E-1,-6.1559224E-1,-2.764544E-1,-5.6826866E-1,-1.028629E0,-1.8748252E0,-1.1328298E0,-1.028629E0,-3.4105563E-1,1.334578E-1,-1.24117196E-1,-1.4967658E-1,4.1250467E-1,1.3996498E-1,-1.23505965E-1,-1.548084E-1,8.751008E-1,-3.331529E-1,1.3421492E-1,-1.9226606E-1,1.5097943E-1,1.0047956E-1,-1.2570867E-1,-1.3927113E-1,1.3519327E-1,-1.2790237E-1,-4.262979E-1,-1.4212647E-1,1.8878255E0,1.4756966E-1,-1.3782191E-1,-1.5556106E-1,1.3398747E-1,-1.9858092E-1,4.318958E-2,-6.5136015E-2,1.1698391E-1,-5.2172042E-2,6.411766E-2,-1.8694744E-1,1.5278372E-1,-1.6772161E-1,8.476371E-2,6.103195E-2,-1.8178686E-1,1.7690788E-1,6.165359E-4,-7.696644E-2,-1.4377542E-1,-1.3861774E-1,1.5664786E-1,9.801125E-2,-1.3248709E-1,5.1870174E-3,-1.5813236E-1,-1.6952492E-1,-3.485493E-2,-1.849997E-1,-1.3533972E-1,1.4043894E-1,-6.516886E-2,1.3536082E-1,-1.4268339E-1],"split_indices":[2,5,3,4,8,7,5,3,8,4,6,5,9,9,4,4,2,6,9,2,4,7,0,5,8,8,4,4,7,4,7,4,7,4,7,7,8,7,5,0,0,6,6,0,0,0,4,3,0,6,0,0,2,0,0,0,4,0,4,0,0,0,0,0,0,0,0,0,0,0,0,0,0,0,0,0,0,0,0,0,0,0,0,0,0,0,0,0,0,0,0,0,0],"split_type":[0,0,0,0,0,0,0,0,0,0,0,0,0,0,0,0,0,0,0,0,0,0,0,0,0,0,0,0,0,0,0,0,0,0,0,0,0,0,0,0,0,0,0,0,0,0,0,0,0,0,0,0,0,0,0,0,0,0,0,0,0,0,0,0,0,0,0,0,0,0,0,0,0,0,0,0,0,0,0,0,0,0,0,0,0,0,0,0,0,0,0,0,0],"sum_hessian":[6.142931E3,4.4930776E3,1.6498534E3,4.117561E3,3.755168E2,6.285809E2,1.0212725E3,2.9451375E3,1.1724235E3,3.098729E2,6.564393E1,3.11082E2,3.1749884E2,2.1565126E2,8.056213E2,4.253917E2,2.5197458E3,1.8427658E2,9.8814685E2,1.9485865E1,2.9038702E2,4.6894287E1,1.8749638E1,2.241033E2,8.697871E1,2.2307121E2,9.442762E1,1.491661E2,6.648515E1,7.7187146E2,3.3749786E1,1.8759999E2,2.377917E2,7.2304553E2,1.7967003E3,1.5542355E2,2.8853018E1,1.0007793E2,8.88069E2,1.3500411E1,5.9854527E0,1.875034E2,1.0288364E2,4.148475E1,5.4095364E0,2.1979553E1,2.0212375E2,7.2217476E1,1.476123E1,1.9302176E2,3.004946E1,1.8339916E0,9.259363E1,1.3388304E2,1.5283071E1,6.925953E0,5.95592E1,6.691394E2,1.027321E2,1.5500227E1,1.8249561E1,3.843773E1,1.4916226E2,8.603221E1,1.5175949E2,9.037651E1,6.3266907E2,1.832222E2,1.6134781E3,7.913515E0,1.4751004E2,2.7373375E1,1.479643E0,1.2466818E0,9.8831245E1,4.5202923E1,8.42866E2,1.795913E1,1.6954427E2,8.673022E1,1.615342E1,1.8425897E2,1.7864782E1,3.5191E0,6.869838E1,8.283877E1,1.1018299E2,5.9551826E1,3.30418E1,5.157042E1,7.9887815E0,1.5699755E1,8.703235E1],"tree_param":{"num_deleted":"0","num_feature":"10","num_nodes":"93","size_leaf_vector":"1"}},{"base_weights":[-3.1575228E-3,2.1295439E-1,-1.096954E0,3.2196635E-1,-7.942542E-1,-5.1424325E-1,-1.257684E0,3.457969E-1,-1.313496E0,5.065962E-1,-9.721397E-1,-1.0530685E0,5.822464E-1,-1.309298E0,-5.9596274E-2,1.6856663E-1,3.2283568E-1,-9.477683E-1,-1.4117683E-1,-1.3315156E-1,1.0109028E0,-1.2012185E0,6.63031E-2,-1.3227491E0,1.295055E-1,-1.411818E-1,8.2189727E-1,-1.3621388E-1,-9.514341E-1,1.3981925E-1,-1.3189052E-1,4.3877193E-1,7.615032E-2,-1.2860595E-1,1.2655075E-1,1.3441873E-1,-1.19555555E-1,-9.3789506E-1,-1.3486699E0,1.03456E0,-1.35624E-1,-6.824389E-1,-1.3344327E-1,-1.2224122E-1,1.0747229E0,1.2976323E-1,-1.3698225E-1,4.7649466E-2,-1.2597983E-1,-3.975907E-3,8.397716E-2,-1.2743819E-1,-2.7197942E-2,-1.3623054E-1,-4.3243803E-2,-1.1024449E-1,1.3463275E-1,1.6801676E-2,-1.0176919E-1,1.3491254E-1,-6.0320318E-2],"categories":[],"categories_nodes":[],"categories_segments":[],"categories_sizes":[],"default_left":[0,0,0,0,0,0,0,0,0,0,0,0,0,0,0,0,0,0,0,0,0,0,0,0,0,0,0,0,0,0,0,0,0,0,0,0,0,0,0,0,0,0,0,0,0,0,0,0,0,0,0,0,0,0,0,0,0,0,0,0,0],"id":6,"left_children":[1,3,5,7,9,11,13,15,17,19,21,23,25,27,29,-1,31,33,-1,-1,35,37,39,41,-1,-1,43,-1,45,-1,-1,47,49,-1,-1,-1,-1,51,53,55,-1,57,-1,-1,59,-1,-1,-1,-1,-1,-1,-1,-1,-1,-1,-1,-1,-1,-1,-1,-1],"loss_changes":[1.4187112E3,5.505171E2,9.209314E1,1.76728E2,1.13816864E2,1.2809198E2,4.7872314E1,1.3662769E2,1.0040665E0,5.656542E1,1.02645996E2,9.3551956E1,3.5442383E1,1.2760376E1,6.2560272E1,0E0,1.25371216E2,1.4239287E1,0E0,0E0,3.640011E1,1.2452362E1,1.10038925E2,6.6223145E-2,0E0,0E0,3.474038E1,0E0,9.489174E1,0E0,0E0,1.9171594E2,1.2422371E2,0E0,0E0,0E0,0E0,2.8804947E1,2.211731E0,3.312844E1,0E0,1.4217162E0,0E0,0E0,2.7558815E1,0E0,0E0,0E0,0E0,0E0,0E0,0E0,0E0,0E0,0E0,0E0,0E0,0E0,0E0,0E0,0E0],"parents":[2147483647,0,0,1,1,2,2,3,3,4,4,5,5,6,6,7,7,8,8,9,9,10,10,11,11,12,12,13,13,14,14,16,16,17,17,20,20,21,21,22,22,23,23,26,26,28,28,31,31,32,32,37,37,38,38,39,39,41,41,44,44],"right_children":[2,4,6,8,10,12,14,16,18,20,22,24,26,28,30,-1,32,34,-1,-1,36,38,40,42,-1,-1,44,-1,46,-1,-1,48,50,-1,-1,-1,-1,52,54,56,-1,58,-1,-1,60,-1,-1,-1,-1,-1,-1,-1,-1,-1,-1,-1,-1,-1,-1,-1,-1],"split_conditions":[5.102885E-2,1.8394256E-2,-2.2123902E-1,1.6322782E0,-3.7897432E-1,-1.4340417E-1,5.465489E0,-3.610251E-1,1.8878255E0,-7.339012E-1,1.0400175E0,1.4619132E0,-3.1577557E-1,1.6843342E0,-3.7047622E-1,1.6856663E-1,-2.7013007E-1,1.6843342E0,-1.4117683E-1,-1.3315156E-1,1.8480624E-1,-3.4463793E-1,7.904534E-3,-2.9654202E-1,1.295055E-1,-1.411818E-1,-1.3106943E0,-1.3621388E-1,1.8878255E0,1.3981925E-1,-1.3189052E-1,-1.2570867E-1,6.66877E-1,-1.2860595E-1,1.2655075E-1,1.3441873E-1,-1.19555555E-1,3.9240018E-1,1.1374011E-1,-3.331529E-1,-1.35624E-1,-5.741009E-1,-1.3344327E-1,-1.2224122E-1,-4.1210082E-1,1.2976323E-1,-1.3698225E-1,4.7649466E-2,-1.2597983E-1,-3.975907E-3,8.397716E-2,-1.2743819E-1,-2.7197942E-2,-1.3623054E-1,-4.3243803E-2,-1.1024449E-1,1.3463275E-1,1.6801676E-2,-1.0176919E-1,1.3491254E-1,-6.0320318E-2],"split_indices":[3,5,5,4,4,9,4,5,4,4,8,4,6,4,7,0,4,4,0,0,5,2,6,2,0,0,7,0,4,0,0,2,4,0,0,0,0,4,2,3,0,7,0,0,4,0,0,0,0,0,0,0,0,0,0,0,0,0,0,0,0],"split_type":[0,0,0,0,0,0,0,0,0,0,0,0,0,0,0,0,0,0,0,0,0,0,0,0,0,0,0,0,0,0,0,0,0,0,0,0,0,0,0,0,0,0,0,0,0,0,0,0,0,0,0,0,0,0,0,0,0,0,0,0,0],"sum_hessian":[5.9997734E3,5.0105884E3,9.89185E2,4.52186E3,4.887286E2,2.1476726E2,7.744177E2,4.457695E3,6.416514E1,5.856964E1,4.3015897E2,1.4402943E2,7.073782E1,7.423444E2,3.207331E1,7.388404E1,4.383811E3,1.5844177E1,4.832096E1,1.2256498E1,4.631314E1,3.5228802E2,7.787093E1,1.2958353E2,1.4445913E1,7.0645585E0,6.3673264E1,6.4439026E2,9.795418E1,1.4814087E1,1.7259224E1,2.9817026E3,1.402108E3,1.4106919E1,1.7372577E0,4.057509E1,5.7380533E0,1.2909917E2,2.2318886E2,4.6496044E1,3.1374887E1,3.386703E0,1.2619682E2,6.585877E0,5.7087387E1,1.5034422E1,8.2919754E1,2.9176262E3,6.407663E1,1.2181536E3,1.839545E2,8.5156105E1,4.394306E1,2.1943631E2,3.7525563E0,5.596796E0,4.0899246E1,1.0986159E0,2.2880871E0,4.923209E1,7.8552966E0],"tree_param":{"num_deleted":"0","num_feature":"10","num_nodes":"61","size_leaf_vector":"1"}},{"base_weights":[-3.7225245E-3,1.9407652E-1,-1.0569315E0,2.925653E-1,-7.592176E-1,-4.9434435E-1,-1.2128531E0,3.5494587E-1,-2.483494E-1,4.8410434E-1,-9.2818886E-1,-1.0126784E0,5.532388E-1,-1.2631112E0,-5.6884255E-2,4.6780944E-1,2.6676936E-2,8.769418E-2,-1.2002298E0,-1.275453E-1,9.713362E-1,-1.1448065E0,6.233948E-2,-1.2731166E0,1.24628834E-1,-1.3347445E-1,7.85078E-1,-1.3144864E-1,-9.15396E-1,1.3335015E-1,-1.2683918E-1,8.2379717E-1,3.494432E-1,8.553579E-1,-1.3934264E-1,-9.588666E-1,4.1885662E-1,-1.5494797E0,6.18738E-1,1.2958024E-1,-1.1474117E-1,-8.7900615E-1,-1.2977203E0,9.9329144E-1,-1.304848E-1,-6.4716613E-1,-1.2850069E-1,-1.1730047E-1,1.0290359E0,1.2489169E-1,-1.3199708E-1,3.9970778E-2,1.2023901E-1,1.1933724E-2,6.7680776E-2,1.2309182E-1,-1.3977073E-1,-1.7084832E-1,5.096523E-3,1.492037E-1,-1.5445384E-1,-2.5387976E-2,1.08636834E-1,1.0166059E-1,-1.6070116E-1,1.4664079E-1,-1.1909771E-1,-1.1673633E-1,-1.4785886E-2,-1.3118543E-1,-4.0191054E-2,-1.0499783E-1,1.2978308E-1,-9.764801E-2,1.6635979E-2,1.3008595E-1,-5.5866946E-2],"categories":[],"categories_nodes":[],"categories_segments":[],"categories_sizes":[],"default_left":[0,0,0,0,0,0,0,0,0,0,0,0,0,0,0,0,0,0,0,0,0,0,0,0,0,0,0,0,0,0,0,0,0,0,0,0,0,0,0,0,0,0,0,0,0,0,0,0,0,0,0,0,0,0,0,0,0,0,0,0,0,0,0,0,0,0,0,0,0,0,0,0,0,0,0,0,0],"id":7,"left_children":[1,3,5,7,9,11,13,15,17,19,21,23,25,27,29,31,33,35,37,-1,39,41,43,45,-1,-1,47,-1,49,-1,-1,51,53,55,57,59,61,63,65,-1,-1,67,69,71,-1,73,-1,-1,75,-1,-1,-1,-1,-1,-1,-1,-1,-1,-1,-1,-1,-1,-1,-1,-1,-1,-1,-1,-1,-1,-1,-1,-1,-1,-1,-1,-1],"loss_changes":[1.2233976E3,4.6441486E2,8.08501E1,1.5131671E2,9.776944E1,1.1088894E2,4.212622E1,1.4888333E2,1.4852924E2,4.931761E1,8.76485E1,8.176401E1,3.0769468E1,1.1230469E1,5.4432785E1,1.2572467E2,1.4172398E2,1.1958133E2,7.791376E1,0E0,3.20699E1,1.2473938E1,9.572533E1,8.152771E-2,0E0,0E0,3.0396793E1,0E0,8.298878E1,0E0,0E0,1.1921469E2,1.6911084E2,1.4720126E2,2.564058E2,1.2138782E2,1.17889694E2,1.6678818E1,3.2775455E1,0E0,0E0,2.6271835E1,2.1384583E0,2.9180511E1,0E0,1.3148915E0,0E0,0E0,2.4406857E1,0E0,0E0,0E0,0E0,0E0,0E0,0E0,0E0,0E0,0E0,0E0,0E0,0E0,0E0,0E0,0E0,0E0,0E0,0E0,0E0,0E0,0E0,0E0,0E0,0E0,0E0,0E0,0E0],"parents":[2147483647,0,0,1,1,2,2,3,3,4,4,5,5,6,6,7,7,8,8,9,9,10,10,11,11,12,12,13,13,14,14,15,15,16,16,17,17,18,18,20,20,21,21,22,22,23,23,26,26,28,28,31,31,32,32,33,33,34,34,35,35,36,36,37,37,38,38,41,41,42,42,43,43,45,45,48,48],"right_children":[2,4,6,8,10,12,14,16,18,20,22,24,26,28,30,32,34,36,38,-1,40,42,44,46,-1,-1,48,-1,50,-1,-1,52,54,56,58,60,62,64,66,-1,-1,68,70,72,-1,74,-1,-1,76,-1,-1,-1,-1,-1,-1,-1,-1,-1,-1,-1,-1,-1,-1,-1,-1,-1,-1,-1,-1,-1,-1,-1,-1,-1,-1,-1,-1],"split_conditions":[5.102885E-2,1.8394256E-2,-2.2123902E-1,-1.8096606E-1,-3.7897432E-1,-1.4340417E-1,5.465489E0,-2.417359E-1,5.13772E-1,-7.339012E-1,1.0400175E0,1.4619132E0,-3.1577557E-1,1.6843342E0,-3.7047622E-1,-3.0777326E-1,-1.0050153E0,-1.148664E0,1.50996E0,-1.275453E-1,1.8480624E-1,-3.4463793E-1,7.904534E-3,-2.9654202E-1,1.24628834E-1,-1.3347445E-1,-1.3106943E0,-1.3144864E-1,1.8878255E0,1.3335015E-1,-1.2683918E-1,-2.925624E-1,-3.4463793E-1,-1.9652501E-1,-8.4224343E-1,-2.438956E0,-1.6245343E-1,-6.1559224E-1,1.6980036E0,1.2958024E-1,-1.1474117E-1,4.7212997E-1,1.1374011E-1,-3.331529E-1,-1.304848E-1,1.6439475E-1,-1.2850069E-1,-1.1730047E-1,-4.1210082E-1,1.2489169E-1,-1.3199708E-1,3.9970778E-2,1.2023901E-1,1.1933724E-2,6.7680776E-2,1.2309182E-1,-1.3977073E-1,-1.7084832E-1,5.096523E-3,1.492037E-1,-1.5445384E-1,-2.5387976E-2,1.08636834E-1,1.0166059E-1,-1.6070116E-1,1.4664079E-1,-1.1909771E-1,-1.1673633E-1,-1.4785886E-2,-1.3118543E-1,-4.0191054E-2,-1.0499783E-1,1.2978308E-1,-9.764801E-2,1.6635979E-2,1.3008595E-1,-5.5866946E-2],"split_indices":[3,5,5,2,4,9,4,4,8,4,8,4,6,4,7,5,8,9,7,0,5,2,6,2,0,0,7,0,4,0,0,6,2,6,9,7,6,4,7,0,0,6,2,3,0,0,0,0,4,0,0,0,0,0,0,0,0,0,0,0,0,0,0,0,0,0,0,0,0,0,0,0,0,0,0,0,0],"split_type":[0,0,0,0,0,0,0,0,0,0,0,0,0,0,0,0,0,0,0,0,0,0,0,0,0,0,0,0,0,0,0,0,0,0,0,0,0,0,0,0,0,0,0,0,0,0,0,0,0,0,0,0,0,0,0,0,0,0,0,0,0,0,0,0,0,0,0,0,0,0,0,0,0,0,0,0,0],"sum_hessian":[5.870595E3,4.943072E3,9.2752325E2,4.480832E3,4.6224014E2,2.021843E2,7.253389E2,4.0178232E3,4.6300864E2,5.508074E1,4.0715942E2,1.3528159E2,6.690271E1,6.9502844E2,3.0310507E1,2.9895483E3,1.0282749E3,3.4287198E2,1.2013667E2,1.1593821E1,4.348692E1,3.339684E2,7.319099E1,1.21688446E2,1.3593147E1,6.796684E0,6.0106026E1,6.0313464E2,9.189378E1,1.4066454E1,1.6244053E1,7.444993E2,2.245049E3,1.7093027E2,8.5734467E2,8.1960304E1,2.6091165E2,1.00909706E2,1.9226965E1,3.8048553E1,5.438367E0,1.2442925E2,2.0953917E2,4.370479E1,2.94862E1,3.301683E0,1.1838676E2,6.2370763E0,5.3868946E1,1.4143696E1,7.7750084E1,3.5212E2,3.9237936E2,1.3191661E3,9.258828E2,1.4689775E2,2.403251E1,9.187041E1,7.6547424E2,1.5509403E1,6.64509E1,1.3025589E2,1.3065576E2,1.8472391E0,9.906247E1,1.3223013E1,6.003953E0,8.880775E1,3.5621506E1,2.0582722E2,3.711942E0,5.3515353E0,3.8353252E1,2.2077026E0,1.0939803E0,4.6148712E1,7.720235E0],"tree_param":{"num_deleted":"0","num_feature":"10","num_nodes":"77","size_leaf_vector":"1"}},{"base_weights":[-4.15433E-3,1.7741533E-1,-1.0227807E0,2.6667053E-1,-7.288372E-1,-4.7709963E-1,-1.1748124E0,2.8657514E-1,-1.2231328E0,4.6439555E-1,-8.9000773E-1,-9.777161E-1,5.275055E-1,-1.2239496E0,-5.452128E-2,2.553452E-1,1.1425941E0,-8.2400054E-1,-1.3295889E-1,-1.22708194E-1,9.3707377E-1,-1.0957053E0,5.8759917E-2,-1.2302858E0,1.2039001E-1,-1.2694232E-1,7.524544E-1,-1.2741049E-1,-8.846082E-1,1.2785994E-1,-1.2247739E-1,4.323701E-1,6.607159E-2,1.3972832E0,-1.3333769E0,-1.1871053E-1,1.2258931E-1,1.254467E-1,-1.1045851E-1,-8.2758117E-1,-1.2540859E0,9.574003E-1,-1.2609369E-1,-6.146771E-1,-1.2425114E-1,-1.1292946E-1,9.887333E-1,1.206607E-1,-1.2777315E-1,5.4015797E-2,-8.319377E-2,-2.7309382E-2,4.6012715E-2,-1.2831445E-1,1.6051905E-1,6.50306E-2,-1.5886371E-1,-1.177277E-1,-1.751632E-2,-1.2688816E-1,-3.736061E-2,-1.095434E-1,1.24384105E-1,1.8698787E-2,-9.522586E-2,1.2597029E-1,-5.175997E-2],"categories":[],"categories_nodes":[],"categories_segments":[],"categories_sizes":[],"default_left":[0,0,0,0,0,0,0,0,0,0,0,0,0,0,0,0,0,0,0,0,0,0,0,0,0,0,0,0,0,0,0,0,0,0,0,0,0,0,0,0,0,0,0,0,0,0,0,0,0,0,0,0,0,0,0,0,0,0,0,0,0,0,0,0,0,0,0],"id":8,"left_children":[1,3,5,7,9,11,13,15,17,19,21,23,25,27,29,31,33,35,-1,-1,37,39,41,43,-1,-1,45,-1,47,-1,-1,49,51,53,55,-1,-1,-1,-1,57,59,61,-1,63,-1,-1,65,-1,-1,-1,-1,-1,-1,-1,-1,-1,-1,-1,-1,-1,-1,-1,-1,-1,-1,-1,-1],"loss_changes":[1.0601498E3,3.9370483E2,7.137988E1,1.3170139E2,8.434772E1,9.639206E1,3.7229553E1,1.165831E2,1.393898E0,4.3199184E1,7.517169E1,7.1781876E1,2.6846653E1,9.918762E0,4.76117E1,1.4134274E2,9.872096E1,1.2595097E1,0E0,0E0,2.8390121E1,1.2395355E1,8.365361E1,1.0058594E-1,0E0,0E0,2.670644E1,0E0,7.293623E1,0E0,0E0,2.9753296E2,2.7280765E2,7.994418E1,8.546196E0,0E0,0E0,0E0,0E0,2.7264725E1,2.091339E0,2.6015839E1,0E0,1.3188375E0,0E0,0E0,2.1741116E1,0E0,0E0,0E0,0E0,0E0,0E0,0E0,0E0,0E0,0E0,0E0,0E0,0E0,0E0,0E0,0E0,0E0,0E0,0E0,0E0],"parents":[2147483647,0,0,1,1,2,2,3,3,4,4,5,5,6,6,7,7,8,8,9,9,10,10,11,11,12,12,13,13,14,14,15,15,16,16,17,17,20,20,21,21,22,22,23,23,26,26,28,28,31,31,32,32,33,33,34,34,39,39,40,40,41,41,43,43,46,46],"right_children":[2,4,6,8,10,12,14,16,18,20,22,24,26,28,30,32,34,36,-1,-1,38,40,42,44,-1,-1,46,-1,48,-1,-1,50,52,54,56,-1,-1,-1,-1,58,60,62,-1,64,-1,-1,66,-1,-1,-1,-1,-1,-1,-1,-1,-1,-1,-1,-1,-1,-1,-1,-1,-1,-1,-1,-1],"split_conditions":[5.102885E-2,1.8394256E-2,-2.2123902E-1,1.6322782E0,-3.7897432E-1,-1.4340417E-1,5.465489E0,4.1976124E-2,1.8878255E0,-7.339012E-1,1.0400175E0,1.4619132E0,-3.1577557E-1,1.6843342E0,-3.7047622E-1,-2.5189134E-1,3.07889E-1,1.6843342E0,-1.3295889E-1,-1.22708194E-1,1.8480624E-1,-3.4463793E-1,7.904534E-3,-2.9654202E-1,1.2039001E-1,-1.2694232E-1,-1.3106943E0,-1.2741049E-1,1.8878255E0,1.2785994E-1,-1.2247739E-1,6.586742E-2,4.0094474E-1,-7.4938613E-1,-2.4786493E-1,-1.1871053E-1,1.2258931E-1,1.254467E-1,-1.1045851E-1,3.9240018E-1,1.1374011E-1,-3.6313128E-1,-1.2609369E-1,-5.741009E-1,-1.2425114E-1,-1.1292946E-1,-4.1210082E-1,1.206607E-1,-1.2777315E-1,5.4015797E-2,-8.319377E-2,-2.7309382E-2,4.6012715E-2,-1.2831445E-1,1.6051905E-1,6.50306E-2,-1.5886371E-1,-1.177277E-1,-1.751632E-2,-1.2688816E-1,-3.736061E-2,-1.095434E-1,1.24384105E-1,1.8698787E-2,-9.522586E-2,1.2597029E-1,-5.175997E-2],"split_indices":[3,5,5,4,4,9,4,6,4,4,8,4,6,4,7,6,7,4,0,0,5,2,6,2,0,0,7,0,4,0,0,4,8,8,5,0,0,0,0,4,2,2,0,7,0,0,4,0,0,0,0,0,0,0,0,0,0,0,0,0,0,0,0,0,0,0,0],"split_type":[0,0,0,0,0,0,0,0,0,0,0,0,0,0,0,0,0,0,0,0,0,0,0,0,0,0,0,0,0,0,0,0,0,0,0,0,0,0,0,0,0,0,0,0,0,0,0,0,0,0,0,0,0,0,0,0,0,0,0,0,0,0,0,0,0,0,0],"sum_hessian":[5.730057E3,4.863896E3,8.661613E2,4.428451E3,4.3544452E2,1.8963857E2,6.7652277E2,4.370862E3,5.75896E1,5.159291E1,3.838516E2,1.2658519E2,6.3053368E1,6.4800793E2,2.8514816E1,4.218266E3,1.5259575E2,1.3966332E1,4.362327E1,1.0919936E1,4.0672977E1,3.1533133E2,6.852028E1,1.13841606E2,1.2743585E1,6.498569E0,5.65548E1,5.621644E2,8.584349E1,1.3286549E1,1.5228267E1,2.178997E3,2.039269E3,1.3875816E2,1.3837598E1,1.2222257E1,1.7440765E0,3.5534416E1,5.138562E0,1.1940854E2,1.9592279E2,4.0926277E1,2.7593998E1,3.2153049E0,1.10626305E2,5.887405E0,5.0667397E1,1.3256486E1,7.2587006E1,2.008349E3,1.7064793E2,1.096131E3,9.43138E2,9.615779E0,1.2914238E2,1.4011712E0,1.2436427E1,7.72162E1,4.219234E1,1.9225104E2,3.6717446E0,4.6655307E0,3.6260746E1,1.0849463E0,2.1303585E0,4.3081356E1,7.5860405E0],"tree_param":{"num_deleted":"0","num_feature":"10","num_nodes":"67","size_leaf_vector":"1"}},{"base_weights":[-4.577408E-3,1.6161795E-1,-9.933033E-1,2.4221069E-1,-7.0102936E-1,-4.619363E-1,-1.1422023E0,1.5340014E-1,2.2099826E-1,4.4686586E-1,-8.548461E-1,-9.4701654E-1,5.0432056E-1,-1.1904118E0,-5.2433964E-2,-2.3942561E-1,2.3071268E-1,-1.1847737E-1,9.070156E-1,-1.0500481E0,5.5218622E-2,-1.1928049E0,1.1665862E-1,-1.213141E-1,7.2311336E-1,-1.23954825E-1,-8.5799086E-1,1.2313093E-1,-1.1866283E-1,2.4888845E-1,-1.180105E0,1.2187576E-1,-1.0660286E-1,-7.776049E-1,-1.2162449E0,9.2515725E-1,-1.22297086E-1,-5.840578E-1,-1.2055119E-1,-1.0901399E-1,9.5264935E-1,1.1693936E-1,-1.2415656E-1,2.1929545E-2,1.06631316E-1,-7.879104E-2,-1.2845148E-1,-1.0829268E-1,-6.356588E-3,-1.2318549E-1,-3.473267E-2,-9.70811E-2,1.22091375E-1,-9.1666184E-2,1.8385738E-2,1.22422576E-1,-4.7960714E-2],"categories":[],"categories_nodes":[],"categories_segments":[],"categories_sizes":[],"default_left":[0,0,0,0,0,0,0,0,0,0,0,0,0,0,0,0,0,0,0,0,0,0,0,0,0,0,0,0,0,0,0,0,0,0,0,0,0,0,0,0,0,0,0,0,0,0,0,0,0,0,0,0,0,0,0,0,0],"id":9,"left_children":[1,3,5,7,9,11,13,-1,15,17,19,21,23,25,27,-1,29,-1,31,33,35,37,-1,-1,39,-1,41,-1,-1,43,45,-1,-1,47,49,51,-1,53,-1,-1,55,-1,-1,-1,-1,-1,-1,-1,-1,-1,-1,-1,-1,-1,-1,-1,-1],"loss_changes":[9.2164636E2,3.3399908E2,6.333136E1,1.2001544E2,7.286673E1,8.406924E1,3.302411E1,0E0,1.10365585E2,3.7988747E1,6.442984E1,6.3255074E1,2.3521091E1,8.78656E0,4.183045E1,0E0,1.1074451E2,0E0,2.5236511E1,1.2566101E1,7.334857E1,1.24923706E-1,0E0,0E0,2.3545912E1,0E0,6.43703E1,0E0,0E0,1.0265466E2,1.238472E0,0E0,0E0,2.5185364E1,2.0621643E0,2.3174423E1,0E0,1.2236905E0,0E0,0E0,1.946556E1,0E0,0E0,0E0,0E0,0E0,0E0,0E0,0E0,0E0,0E0,0E0,0E0,0E0,0E0,0E0,0E0],"parents":[2147483647,0,0,1,1,2,2,3,3,4,4,5,5,6,6,8,8,9,9,10,10,11,11,12,12,13,13,14,14,16,16,18,18,19,19,20,20,21,21,24,24,26,26,29,29,30,30,33,33,34,34,35,35,37,37,40,40],"right_children":[2,4,6,8,10,12,14,-1,16,18,20,22,24,26,28,-1,30,-1,32,34,36,38,-1,-1,40,-1,42,-1,-1,44,46,-1,-1,48,50,52,-1,54,-1,-1,56,-1,-1,-1,-1,-1,-1,-1,-1,-1,-1,-1,-1,-1,-1,-1,-1],"split_conditions":[5.102885E-2,1.8394256E-2,-2.2123902E-1,-3.610251E-1,-3.7897432E-1,-1.4340417E-1,5.465489E0,1.5340014E-1,-3.2855242E-1,-7.339012E-1,1.0400175E0,1.4619132E0,-3.1577557E-1,1.6843342E0,-3.7047622E-1,-2.3942561E-1,1.6322782E0,-1.1847737E-1,1.8480624E-1,-3.4463793E-1,7.904534E-3,-2.9654202E-1,1.1665862E-1,-1.213141E-1,-1.3106943E0,-1.23954825E-1,1.8878255E0,1.2313093E-1,-1.1866283E-1,4.1976124E-2,1.8878255E0,1.2187576E-1,-1.0660286E-1,4.7212997E-1,1.1374011E-1,-3.331529E-1,-1.22297086E-1,1.6439475E-1,-1.2055119E-1,-1.0901399E-1,-4.1210082E-1,1.1693936E-1,-1.2415656E-1,2.1929545E-2,1.06631316E-1,-7.879104E-2,-1.2845148E-1,-1.0829268E-1,-6.356588E-3,-1.2318549E-1,-3.473267E-2,-9.70811E-2,1.22091375E-1,-9.1666184E-2,1.8385738E-2,1.22422576E-1,-4.7960714E-2],"split_indices":[3,5,5,5,4,9,4,0,6,4,8,4,6,4,7,0,4,0,5,2,6,2,0,0,7,0,4,0,0,6,4,0,0,6,2,3,0,0,0,0,4,0,0,0,0,0,0,0,0,0,0,0,0,0,0,0,0],"split_type":[0,0,0,0,0,0,0,0,0,0,0,0,0,0,0,0,0,0,0,0,0,0,0,0,0,0,0,0,0,0,0,0,0,0,0,0,0,0,0,0,0,0,0,0,0,0,0,0,0,0,0,0,0,0,0,0,0],"sum_hessian":[5.6068174E3,4.800702E3,8.0611554E2,4.391176E3,4.0952594E2,1.7734326E2,6.287723E2,6.979017E1,4.3213857E3,4.81665E1,3.6135944E2,1.180831E2,5.926016E1,6.020463E2,2.6725925E1,1.5084076E1,4.306302E3,1.02492075E1,3.7917294E1,2.9741284E2,6.3946598E1,1.0617212E2,1.191098E1,6.182735E0,5.3077423E1,5.221383E2,7.990805E1,1.2496302E1,1.4229625E1,4.252342E3,5.395993E1,3.30739E1,4.843397E0,1.1483875E2,1.825741E2,3.8214157E1,2.5732443E1,3.1311948E0,1.03040924E2,5.542703E0,4.753472E1,1.2387139E1,6.7520905E1,4.104998E3,1.4734378E2,1.3141782E1,4.081815E1,8.008004E1,3.475871E1,1.7894173E2,3.6323628E0,4.848707E0,3.3365448E1,2.0497103E0,1.0814847E0,4.008019E1,7.454534E0],"tree_param":{"num_deleted":"0","num_feature":"10","num_nodes":"57","size_leaf_vector":"1"}},{"base_weights":[-4.9974294E-3,1.4679758E-1,-9.675958E-1,2.1935388E-1,-6.762599E-1,-4.4843647E-1,-1.1139908E0,2.7378383E-1,-2.5715783E-1,4.3105423E-1,-8.234724E-1,-9.197369E-1,4.8313227E-1,-1.161435E0,-5.05657E-2,2.4281563E-1,1.376264E0,6.629907E-2,-1.1704006E0,-1.14729665E-1,8.803217E-1,-1.0092651E0,5.2141327E-2,-1.1596283E0,1.133345E-1,-1.16392486E-1,6.963561E-1,-1.2097194E-1,-8.3472455E-1,1.19002305E-1,-1.1528688E-1,3.6479014E-1,-8.4702626E-2,1.6006088E0,-2.0064016E-1,-3.0556923E-1,7.956816E-1,-1.487455E0,5.578272E-1,1.1875903E-1,-1.0309322E-1,-7.3318714E-1,-1.183041E0,8.969184E-1,-1.1897848E-1,-5.556628E-1,-1.17291346E-1,-1.0546591E-1,9.1989166E-1,1.1362713E-1,-1.2103088E-1,2.7501702E-2,1.0058804E-1,-6.9603376E-2,3.767163E-2,3.546613E-2,1.611292E-1,-1.728721E-1,1.0367576E-2,-1.6194509E-1,1.1175974E-1,9.376972E-2,-1.5404464E-1,1.3524793E-1,-1.13392346E-1,-1.0993572E-1,-9.413814E-3,-1.19961254E-1,-3.2290187E-2,-1.0233193E-1,1.1756947E-1,2.0212658E-2,-8.96756E-2,1.1933398E-1,-4.443798E-2],"categories":[],"categories_nodes":[],"categories_segments":[],"categories_sizes":[],"default_left":[0,0,0,0,0,0,0,0,0,0,0,0,0,0,0,0,0,0,0,0,0,0,0,0,0,0,0,0,0,0,0,0,0,0,0,0,0,0,0,0,0,0,0,0,0,0,0,0,0,0,0,0,0,0,0,0,0,0,0,0,0,0,0,0,0,0,0,0,0,0,0,0,0,0,0],"id":10,"left_children":[1,3,5,7,9,11,13,15,17,19,21,23,25,27,29,31,33,35,37,-1,39,41,43,45,-1,-1,47,-1,49,-1,-1,51,53,55,-1,57,59,61,63,-1,-1,65,67,69,-1,71,-1,-1,73,-1,-1,-1,-1,-1,-1,-1,-1,-1,-1,-1,-1,-1,-1,-1,-1,-1,-1,-1,-1,-1,-1,-1,-1,-1,-1],"loss_changes":[8.0357043E2,2.83833E2,5.6433838E1,1.1331734E2,6.312851E1,7.352203E1,2.938855E1,1.3347385E2,1.3245345E2,3.3518547E1,5.540451E1,5.592044E1,2.0678741E1,7.803467E0,3.6889957E1,1.523686E2,8.431038E1,9.025772E1,6.508249E1,0E0,2.251429E1,1.2601105E1,6.454976E1,1.4874268E-1,0E0,0E0,2.0820728E1,0E0,5.7015762E1,0E0,0E0,1.5964621E2,2.9238242E2,7.69928E-1,0E0,1.2861832E2,8.915296E1,1.4213043E1,2.6948465E1,0E0,0E0,2.588847E1,2.0451965E0,2.0786367E1,0E0,1.227443E0,0E0,0E0,1.7507298E1,0E0,0E0,0E0,0E0,0E0,0E0,0E0,0E0,0E0,0E0,0E0,0E0,0E0,0E0,0E0,0E0,0E0,0E0,0E0,0E0,0E0,0E0,0E0,0E0,0E0,0E0],"parents":[2147483647,0,0,1,1,2,2,3,3,4,4,5,5,6,6,7,7,8,8,9,9,10,10,11,11,12,12,13,13,14,14,15,15,16,16,17,17,18,18,20,20,21,21,22,22,23,23,26,26,28,28,31,31,32,32,33,33,35,35,36,36,37,37,38,38,41,41,42,42,43,43,45,45,48,48],"right_children":[2,4,6,8,10,12,14,16,18,20,22,24,26,28,30,32,34,36,38,-1,40,42,44,46,-1,-1,48,-1,50,-1,-1,52,54,56,-1,58,60,62,64,-1,-1,66,68,70,-1,72,-1,-1,74,-1,-1,-1,-1,-1,-1,-1,-1,-1,-1,-1,-1,-1,-1,-1,-1,-1,-1,-1,-1,-1,-1,-1,-1,-1,-1],"split_conditions":[5.102885E-2,1.8394256E-2,-2.2123902E-1,-1.8096606E-1,-3.7897432E-1,-1.4340417E-1,5.465489E0,-4.151406E-2,5.13772E-1,-7.339012E-1,1.0400175E0,1.4619132E0,-3.1577557E-1,1.6843342E0,-3.7047622E-1,-2.2123902E-1,2.3149997E-1,-1.3689972E-1,1.50996E0,-1.14729665E-1,1.8480624E-1,-3.4463793E-1,7.904534E-3,-2.9654202E-1,1.133345E-1,-1.16392486E-1,-1.3106943E0,-1.2097194E-1,1.8878255E0,1.19002305E-1,-1.1528688E-1,1.2956465E0,4.0094474E-1,-4.7670382E-1,-2.0064016E-1,-1.6254693E-1,-5.06748E-1,-6.1559224E-1,1.6980036E0,1.1875903E-1,-1.0309322E-1,3.9240018E-1,1.1374011E-1,-3.6313128E-1,-1.1897848E-1,-5.741009E-1,-1.17291346E-1,-1.0546591E-1,-4.1210082E-1,1.1362713E-1,-1.2103088E-1,2.7501702E-2,1.0058804E-1,-6.9603376E-2,3.767163E-2,3.546613E-2,1.611292E-1,-1.728721E-1,1.0367576E-2,-1.6194509E-1,1.1175974E-1,9.376972E-2,-1.5404464E-1,1.3524793E-1,-1.13392346E-1,-1.0993572E-1,-9.413814E-3,-1.19961254E-1,-3.2290187E-2,-1.0233193E-1,1.1756947E-1,2.0212658E-2,-8.96756E-2,1.1933398E-1,-4.443798E-2],"split_indices":[3,5,5,2,4,9,4,5,8,4,8,4,6,4,7,5,4,6,7,0,5,2,6,2,0,0,7,0,4,0,0,8,8,4,0,2,4,4,7,0,0,4,2,2,0,7,0,0,4,0,0,0,0,0,0,0,0,0,0,0,0,0,0,0,0,0,0,0,0,0,0,0,0,0,0],"split_type":[0,0,0,0,0,0,0,0,0,0,0,0,0,0,0,0,0,0,0,0,0,0,0,0,0,0,0,0,0,0,0,0,0,0,0,0,0,0,0,0,0,0,0,0,0,0,0,0,0,0,0,0,0,0,0,0,0,0,0,0,0,0,0,0,0,0,0,0,0,0,0,0,0,0,0],"sum_hessian":[5.4975044E3,4.7494043E3,7.481002E2,4.365315E3,3.840891E2,1.6544547E2,5.826547E2,3.9181829E3,4.4713217E2,4.4844704E1,3.3924442E2,1.0987172E2,5.557374E1,5.576819E2,2.4972866E1,3.8123167E3,1.058661E2,3.3087027E2,1.16261894E2,9.592158E0,3.5252544E1,2.797358E2,5.950858E1,9.876656E1,1.1105156E1,5.8587637E0,4.9714973E1,4.835199E2,7.4161964E1,1.1711999E1,1.3260868E1,2.7777222E3,1.0345945E3,9.9775604E1,6.090489E0,2.1952748E2,1.11342804E2,9.8356995E1,1.7904898E1,3.0696209E1,4.556337E0,1.1007646E2,1.6965936E2,3.5582573E1,2.3926008E1,3.0475E0,9.571906E1,5.2072287E0,4.4507744E1,1.15459E1,6.2616062E1,2.4377837E3,3.399386E2,4.4478848E2,5.89806E2,1.1389736E0,9.8636635E1,4.8308887E1,1.712186E2,1.2621433E1,9.8721375E1,1.7462134E0,9.661078E1,1.2318958E1,5.585939E0,6.95211E1,4.0555355E1,1.6606526E2,3.5940948E0,4.1723394E0,3.1410233E1,1.0724056E0,1.9750942E0,3.718071E1,7.3270354E0],"tree_param":{"num_deleted":"0","num_feature":"10","num_nodes":"75","size_leaf_vector":"1"}},{"base_weights":[-5.274235E-3,1.3375027E-1,-9.449499E-1,1.993389E-1,-6.529124E-1,-4.3625304E-1,-1.0893811E0,1.4425948E-1,1.7981699E-1,4.166018E-1,-7.937184E-1,-8.951705E-1,4.635148E-1,-1.1361974E0,-4.8873704E-2,2.8358203E-1,-4.0056866E-2,-1.11370146E-1,8.563374E-1,-9.7022355E-1,4.8936244E-2,-1.1298758E0,1.1033934E-1,-1.1203056E-1,6.716397E-1,-1.1837703E-1,-8.141752E-1,1.1535231E-1,-1.12265006E-1,3.1396586E-1,-1.1571603E0,-9.1358787E-1,5.1782556E-2,1.1601219E-1,-9.986602E-2,-6.8943214E-1,-1.1535766E0,8.707148E-1,-1.160476E-1,-1.1549107E-1,-6.893588E-1,-1.0221638E-1,8.897651E-1,1.10645406E-1,-1.18306376E-1,2.7453516E-2,1.22184575E-1,8.989196E-2,-1.2319787E-1,-1.6332643E-1,1.1110248E-1,1.0795125E-2,-1.4940107E-1,-1.0122802E-1,5.299616E-4,-1.171255E-1,-3.0018294E-2,-9.043465E-2,1.1623245E-1,7.681019E-2,-1.046669E-1,1.1662E-1,-4.1166242E-2],"categories":[],"categories_nodes":[],"categories_segments":[],"categories_sizes":[],"default_left":[0,0,0,0,0,0,0,0,0,0,0,0,0,0,0,0,0,0,0,0,0,0,0,0,0,0,0,0,0,0,0,0,0,0,0,0,0,0,0,0,0,0,0,0,0,0,0,0,0,0,0,0,0,0,0,0,0,0,0,0,0,0,0],"id":11,"left_children":[1,3,5,7,9,11,13,-1,15,17,19,21,23,25,27,29,31,-1,33,35,37,39,-1,-1,41,-1,43,-1,-1,45,47,49,51,-1,-1,53,55,57,-1,-1,59,-1,61,-1,-1,-1,-1,-1,-1,-1,-1,-1,-1,-1,-1,-1,-1,-1,-1,-1,-1,-1,-1],"loss_changes":[7.030592E2,2.4202126E2,5.0485107E1,1.04787506E2,5.4699875E1,6.4438126E1,2.6227722E1,0E0,9.725813E1,2.9659117E1,4.754889E1,4.9570976E1,1.8232685E1,6.9453735E0,3.26383E1,1.2713165E2,1.0975238E2,0E0,2.01498E1,1.280217E1,5.6928883E1,2.2603607E-1,0E0,0E0,1.8457283E1,0E0,5.066045E1,0E0,0E0,1.01219696E2,1.0341019E1,1.9144708E2,1.0767932E2,0E0,0E0,2.3963924E1,2.0365143E0,1.8687504E1,0E0,0E0,4.691455E0,0E0,1.5810036E1,0E0,0E0,0E0,0E0,0E0,0E0,0E0,0E0,0E0,0E0,0E0,0E0,0E0,0E0,0E0,0E0,0E0,0E0,0E0,0E0],"parents":[2147483647,0,0,1,1,2,2,3,3,4,4,5,5,6,6,8,8,9,9,10,10,11,11,12,12,13,13,14,14,15,15,16,16,18,18,19,19,20,20,21,21,24,24,26,26,29,29,30,30,31,31,32,32,35,35,36,36,37,37,40,40,42,42],"right_children":[2,4,6,8,10,12,14,-1,16,18,20,22,24,26,28,30,32,-1,34,36,38,40,-1,-1,42,-1,44,-1,-1,46,48,50,52,-1,-1,54,56,58,-1,-1,60,-1,62,-1,-1,-1,-1,-1,-1,-1,-1,-1,-1,-1,-1,-1,-1,-1,-1,-1,-1,-1,-1],"split_conditions":[5.102885E-2,1.8394256E-2,-2.2123902E-1,-3.610251E-1,-3.7897432E-1,-1.4340417E-1,5.465489E0,1.4425948E-1,-2.653977E-1,-7.339012E-1,1.0400175E0,1.4619132E0,-3.1577557E-1,1.6843342E0,-3.7047622E-1,-1.2570867E-1,-3.210862E-1,-1.11370146E-1,1.8480624E-1,-3.4463793E-1,7.904534E-3,-3.4313196E-1,1.1033934E-1,-1.1203056E-1,-1.3106943E0,-1.1837703E-1,1.8878255E0,1.1535231E-1,-1.12265006E-1,2.3859591E0,-6.1559224E-1,5.4512054E-1,1.6980036E0,1.1601219E-1,-9.986602E-2,4.7212997E-1,1.1374011E-1,-3.331529E-1,-1.160476E-1,-1.1549107E-1,5.3611803E-1,-1.0221638E-1,-4.1210082E-1,1.10645406E-1,-1.18306376E-1,2.7453516E-2,1.22184575E-1,8.989196E-2,-1.2319787E-1,-1.6332643E-1,1.1110248E-1,1.0795125E-2,-1.4940107E-1,-1.0122802E-1,5.299616E-4,-1.171255E-1,-3.0018294E-2,-9.043465E-2,1.1623245E-1,7.681019E-2,-1.046669E-1,1.1662E-1,-4.1166242E-2],"split_indices":[3,5,5,5,4,9,4,0,4,4,8,4,6,4,7,2,5,0,5,2,6,9,0,0,7,0,4,0,0,9,4,9,7,0,0,6,2,3,0,0,3,0,4,0,0,0,0,0,0,0,0,0,0,0,0,0,0,0,0,0,0,0,0],"split_type":[0,0,0,0,0,0,0,0,0,0,0,0,0,0,0,0,0,0,0,0,0,0,0,0,0,0,0,0,0,0,0,0,0,0,0,0,0,0,0,0,0,0,0,0,0,0,0,0,0,0,0,0,0,0,0,0,0,0,0,0,0,0,0],"sum_hessian":[5.37977E3,4.6871646E3,6.926057E2,4.327133E3,3.6003156E2,1.540502E2,5.3855554E2,6.576834E1,4.2613647E3,4.1657425E1,3.1837415E2,1.0202069E2,5.2029507E1,5.152792E2,2.3276335E1,2.89489E3,1.3664746E3,8.956315E0,3.270111E1,2.6311075E2,5.5263393E1,9.1687805E1,1.0332881E1,5.5339046E0,4.6495605E1,4.4662277E2,6.865642E1,1.0945491E1,1.2330845E1,2.8358665E3,5.9023533E1,1.2914679E2,1.2373278E3,2.8421284E1,4.279827E0,1.0581824E2,1.5729251E2,3.3071693E1,2.2191698E1,8.5222824E1,6.4649816E0,4.883986E0,4.1611618E1,1.0739816E1,5.79166E1,2.719075E3,1.16791466E2,1.6856471E0,5.7337883E1,9.542127E1,3.3725513E1,1.1948417E3,4.248618E1,7.193317E1,3.3885067E1,1.5373535E2,3.557157E0,4.36997E0,2.8701725E1,1.0465302E0,5.4184513E0,3.440714E1,7.204478E0],"tree_param":{"num_deleted":"0","num_feature":"10","num_nodes":"63","size_leaf_vector":"1"}},{"base_weights":[-5.531496E-3,1.21813215E-1,-9.247807E-1,1.8112254E-1,-6.3163656E-1,-4.2494905E-1,-1.067745E0,1.3802539E-1,1.6318265E-1,4.0322453E-1,-7.6656765E-1,-8.725815E-1,4.4513428E-1,-1.1140519E0,-4.732315E-2,-2.1412094E-1,1.7223932E-1,-1.0832437E-1,8.3454454E-1,-9.34592E-1,4.6134196E-2,-1.1026938E0,1.0761092E-1,-1.08116746E-1,6.485353E-1,-1.16103284E-1,-7.95843E-1,1.1208701E-1,-1.0953031E-1,1.8832259E-1,-1.1386116E0,1.1356862E-1,-9.6870996E-2,-6.5005654E-1,-1.1271412E0,8.4742314E-1,-1.134333E-1,-1.1290952E-1,-6.54045E-1,-9.921092E-2,8.617198E-1,1.0793173E-1,-1.15912534E-1,1.559789E-2,8.064437E-2,-7.212298E-2,-1.24906085E-1,-1.0338306E-1,-2.6491636E-3,-1.146073E-1,-2.7903909E-2,-9.6222E-2,1.12198606E-1,7.145733E-2,-1.016527E-1,1.1421382E-1,-3.8124233E-2],"categories":[],"categories_nodes":[],"categories_segments":[],"categories_sizes":[],"default_left":[0,0,0,0,0,0,0,0,0,0,0,0,0,0,0,0,0,0,0,0,0,0,0,0,0,0,0,0,0,0,0,0,0,0,0,0,0,0,0,0,0,0,0,0,0,0,0,0,0,0,0,0,0,0,0,0,0],"id":12,"left_children":[1,3,5,7,9,11,13,-1,15,17,19,21,23,25,27,-1,29,-1,31,33,35,37,-1,-1,39,-1,41,-1,-1,43,45,-1,-1,47,49,51,-1,-1,53,-1,55,-1,-1,-1,-1,-1,-1,-1,-1,-1,-1,-1,-1,-1,-1,-1,-1],"loss_changes":[6.1662897E2,2.068645E2,4.534601E1,9.205873E1,4.7483932E1,5.655526E1,2.3465942E1,0E0,8.8602005E1,2.6308899E1,4.0902664E1,4.4037277E1,1.6115417E1,6.1931763E0,2.8957533E1,0E0,8.9017166E1,0E0,1.8084904E1,1.2854645E1,5.035327E1,2.7972412E-1,0E0,0E0,1.6397379E1,0E0,4.5137978E1,0E0,0E0,8.308032E1,1.4592056E0,0E0,0E0,2.449096E1,2.0331573E0,1.6818392E1,0E0,0E0,4.275564E0,0E0,1.4329481E1,0E0,0E0,0E0,0E0,0E0,0E0,0E0,0E0,0E0,0E0,0E0,0E0,0E0,0E0,0E0,0E0],"parents":[2147483647,0,0,1,1,2,2,3,3,4,4,5,5,6,6,8,8,9,9,10,10,11,11,12,12,13,13,14,14,16,16,18,18,19,19,20,20,21,21,24,24,26,26,29,29,30,30,33,33,34,34,35,35,38,38,40,40],"right_children":[2,4,6,8,10,12,14,-1,16,18,20,22,24,26,28,-1,30,-1,32,34,36,38,-1,-1,40,-1,42,-1,-1,44,46,-1,-1,48,50,52,-1,-1,54,-1,56,-1,-1,-1,-1,-1,-1,-1,-1,-1,-1,-1,-1,-1,-1,-1,-1],"split_conditions":[5.102885E-2,1.8394256E-2,-2.2123902E-1,-3.610251E-1,-3.7897432E-1,-1.4340417E-1,5.465489E0,1.3802539E-1,-3.2855242E-1,-7.339012E-1,1.0400175E0,1.4619132E0,-3.1577557E-1,1.6843342E0,-3.7047622E-1,-2.1412094E-1,1.6322782E0,-1.0832437E-1,1.8480624E-1,-3.4463793E-1,7.904534E-3,-3.4313196E-1,1.0761092E-1,-1.08116746E-1,-1.3106943E0,-1.16103284E-1,1.8878255E0,1.1208701E-1,-1.0953031E-1,-6.14835E-2,1.8878255E0,1.1356862E-1,-9.6870996E-2,3.9240018E-1,1.1374011E-1,-3.6313128E-1,-1.134333E-1,-1.1290952E-1,5.3611803E-1,-9.921092E-2,-4.1210082E-1,1.0793173E-1,-1.15912534E-1,1.559789E-2,8.064437E-2,-7.212298E-2,-1.24906085E-1,-1.0338306E-1,-2.6491636E-3,-1.146073E-1,-2.7903909E-2,-9.6222E-2,1.12198606E-1,7.145733E-2,-1.016527E-1,1.1421382E-1,-3.8124233E-2],"split_indices":[3,5,5,5,4,9,4,0,6,4,8,4,6,4,7,0,4,0,5,2,6,9,0,0,7,0,4,0,0,5,4,0,0,4,2,2,0,0,3,0,4,0,0,0,0,0,0,0,0,0,0,0,0,0,0,0,0],"split_type":[0,0,0,0,0,0,0,0,0,0,0,0,0,0,0,0,0,0,0,0,0,0,0,0,0,0,0,0,0,0,0,0,0,0,0,0,0,0,0,0,0,0,0,0,0,0,0,0,0,0,0,0,0,0,0,0,0],"sum_hessian":[5.2656006E3,4.6256685E3,6.39932E2,4.2888247E3,3.3684396E2,1.4321075E2,4.9672125E2,6.20989E1,4.2267256E3,3.8624325E1,2.9821964E2,9.455969E1,4.8651066E1,4.7507065E2,2.16506E1,1.5625135E1,4.2111006E3,8.346866E0,3.027746E1,2.4700243E2,5.121721E1,8.4961136E1,9.598552E0,5.2135606E0,4.3437508E1,4.1164597E2,6.3424683E1,1.0205206E1,1.1445394E1,4.1609053E3,5.01952E1,2.6261946E1,4.015516E0,1.0145521E2,1.4554721E2,3.067647E1,2.0540741E1,7.880697E1,6.154172E0,4.5750046E0,3.8862503E1,9.973466E0,5.3451218E1,3.9551987E3,2.0570663E2,1.2079059E1,3.8116142E1,6.239573E1,3.905948E1,1.4202551E2,3.5216992E0,3.711227E0,2.6965242E1,1.085255E0,5.068917E0,3.1775019E1,7.087483E0],"tree_param":{"num_deleted":"0","num_feature":"10","num_nodes":"57","size_leaf_vector":"1"}},{"base_weights":[-5.7742023E-3,1.1049168E-1,-9.0668565E-1,1.6394973E-1,-6.110771E-1,-4.1452911E-1,-1.0485805E0,2.1030624E-1,-2.4788226E-1,3.906937E-1,-7.4018425E-1,-8.5183525E-1,4.2772654E-1,-1.0944815E0,-4.5887295E-2,1.8311039E-1,1.2236781E0,1.0654909E-1,-9.93038E-1,-1.05533205E-1,8.14526E-1,-8.9968103E-1,4.3075264E-2,-1.0778606E0,1.0509922E-1,-5.823811E-3,1.1454012E-1,-1.140973E-1,-7.793274E-1,1.09132685E-1,-1.0702914E-1,2.9628342E-1,-1.1747652E-1,1.4484141E0,-1.8919124E-1,2.9709524E-1,-1.5985725E0,1.3119712E-1,-1.222096E0,1.11374736E-1,-9.406806E-2,-6.109983E-1,-1.1031631E0,8.250897E-1,-1.1107862E-1,-4.426852E-1,-1.094435E-1,5.899262E-1,-1.1856752E-1,1.054359E-1,-1.13793135E-1,2.1344887E-2,9.013256E-2,-6.607281E-2,3.0268973E-2,2.8696403E-2,1.4589196E-1,-1.433271E-1,5.211875E-2,-1.6931424E-1,-8.6641066E-2,-1.4897771E-1,5.605008E-2,-2.1621803E-2,-1.1997872E-1,-1.1234974E-1,-2.5935367E-2,-8.468536E-2,1.1159762E-1,2.4850572E-2,-7.987281E-2,-1.0456494E-1,1.16828345E-1],"categories":[],"categories_nodes":[],"categories_segments":[],"categories_sizes":[],"default_left":[0,0,0,0,0,0,0,0,0,0,0,0,0,0,0,0,0,0,0,0,0,0,0,0,0,0,0,0,0,0,0,0,0,0,0,0,0,0,0,0,0,0,0,0,0,0,0,0,0,0,0,0,0,0,0,0,0,0,0,0,0,0,0,0,0,0,0,0,0,0,0,0,0],"id":13,"left_children":[1,3,5,7,9,11,13,15,17,19,21,23,25,27,29,31,33,35,37,-1,39,41,43,45,-1,47,-1,-1,49,-1,-1,51,53,55,-1,57,59,-1,61,-1,-1,63,65,67,-1,69,-1,71,-1,-1,-1,-1,-1,-1,-1,-1,-1,-1,-1,-1,-1,-1,-1,-1,-1,-1,-1,-1,-1,-1,-1,-1,-1],"loss_changes":[5.418291E2,1.7682938E2,4.085605E1,8.150186E1,4.118917E1,4.9710037E1,2.104248E1,1.0547412E2,1.1422696E2,2.3387056E1,3.5077606E1,3.9204483E1,1.4460405E1,5.531067E0,2.5754583E1,1.2713441E2,7.2801605E1,9.590765E1,7.519182E1,0E0,1.6273087E1,1.3016846E1,4.4594307E1,3.5368347E-1,0E0,2.1753824E1,0E0,0E0,4.031607E1,0E0,0E0,1.3585663E2,2.3362744E2,7.270508E-1,0E0,1.0352111E2,5.881653E-1,0E0,6.1576706E1,0E0,0E0,2.2659851E1,2.0329742E0,1.5255943E1,0E0,1.1099968E0,0E0,2.068108E1,0E0,0E0,0E0,0E0,0E0,0E0,0E0,0E0,0E0,0E0,0E0,0E0,0E0,0E0,0E0,0E0,0E0,0E0,0E0,0E0,0E0,0E0,0E0,0E0,0E0],"parents":[2147483647,0,0,1,1,2,2,3,3,4,4,5,5,6,6,7,7,8,8,9,9,10,10,11,11,12,12,13,13,14,14,15,15,16,16,17,17,18,18,20,20,21,21,22,22,23,23,25,25,28,28,31,31,32,32,33,33,35,35,36,36,38,38,41,41,42,42,43,43,45,45,47,47],"right_children":[2,4,6,8,10,12,14,16,18,20,22,24,26,28,30,32,34,36,38,-1,40,42,44,46,-1,48,-1,-1,50,-1,-1,52,54,56,-1,58,60,-1,62,-1,-1,64,66,68,-1,70,-1,72,-1,-1,-1,-1,-1,-1,-1,-1,-1,-1,-1,-1,-1,-1,-1,-1,-1,-1,-1,-1,-1,-1,-1,-1,-1],"split_conditions":[5.102885E-2,1.8394256E-2,-2.2123902E-1,-1.8096606E-1,-3.7897432E-1,-1.4340417E-1,5.465489E0,-4.151406E-2,1.4531566E-1,-7.339012E-1,1.0400175E0,1.4619132E0,-2.0504291E-1,1.6843342E0,-3.7047622E-1,-2.2123902E-1,2.3149997E-1,-4.151406E-2,-4.9800423E-1,-1.05533205E-1,1.8480624E-1,-3.4463793E-1,7.904534E-3,-2.9654202E-1,1.0509922E-1,1.3215925E-1,1.1454012E-1,-1.140973E-1,1.8878255E0,1.09132685E-1,-1.0702914E-1,1.2956465E0,4.0094474E-1,-4.7670382E-1,-1.8919124E-1,-3.0636272E-1,5.154415E-1,1.3119712E-1,1.50996E0,1.11374736E-1,-9.406806E-2,-1.4340417E-1,1.1374011E-1,-3.331529E-1,-1.1107862E-1,-4.9812782E-1,-1.094435E-1,-3.1577557E-1,-1.1856752E-1,1.054359E-1,-1.13793135E-1,2.1344887E-2,9.013256E-2,-6.607281E-2,3.0268973E-2,2.8696403E-2,1.4589196E-1,-1.433271E-1,5.211875E-2,-1.6931424E-1,-8.6641066E-2,-1.4897771E-1,5.605008E-2,-2.1621803E-2,-1.1997872E-1,-1.1234974E-1,-2.5935367E-2,-8.468536E-2,1.1159762E-1,2.4850572E-2,-7.987281E-2,-1.0456494E-1,1.16828345E-1],"split_indices":[3,5,5,2,4,9,4,5,8,4,8,4,6,4,7,5,4,5,7,0,5,2,6,2,0,2,0,0,4,0,0,8,8,4,0,5,4,0,7,0,0,9,2,3,0,4,0,6,0,0,0,0,0,0,0,0,0,0,0,0,0,0,0,0,0,0,0,0,0,0,0,0,0],"split_type":[0,0,0,0,0,0,0,0,0,0,0,0,0,0,0,0,0,0,0,0,0,0,0,0,0,0,0,0,0,0,0,0,0,0,0,0,0,0,0,0,0,0,0,0,0,0,0,0,0,0,0,0,0,0,0,0,0,0,0,0,0,0,0,0,0,0,0,0,0,0,0,0,0],"sum_hessian":[5.1708696E3,4.5806035E3,5.902661E2,4.2653726E3,3.1523102E2,1.3297372E2,4.5729242E2,3.83427E3,4.3110275E2,3.5757183E1,2.7947385E2,8.752081E1,4.5452908E1,4.3718747E2,2.0104933E1,3.7352087E3,9.9061104E1,2.927256E2,1.3837715E2,7.767194E0,2.7989988E1,2.320686E2,4.7405243E1,7.861604E1,8.904776E0,2.8953726E1,1.6499184E1,3.787011E2,5.8486374E1,9.496891E0,1.0608041E1,2.713552E3,1.0216567E3,9.289541E1,6.1656914E0,2.6404456E2,2.8681032E1,1.2080769E1,1.2629638E2,2.4225561E1,3.7644262E0,9.760201E1,1.3446658E2,2.84253E1,1.8979944E1,2.7039084E0,7.591213E1,1.9571407E1,9.3823185E0,9.249545E0,4.9236828E1,2.3879744E3,3.2557782E2,4.4531577E2,5.7634094E2,1.0865538E0,9.180885E1,2.965586E1,2.343887E2,2.4237827E1,4.443206E0,1.0995014E2,1.634624E1,5.924544E1,3.835657E1,1.3097878E2,3.4878194E0,3.929312E0,2.4495989E1,1.021973E0,1.6819353E0,4.9016724E0,1.4669734E1],"tree_param":{"num_deleted":"0","num_feature":"10","num_nodes":"73","size_leaf_vector":"1"}},{"base_weights":[-5.9171584E-3,1.00543156E-1,-8.903957E-1,1.4895797E-1,-5.908104E-1,-4.0456825E-1,-1.0314809E0,1.3206153E-1,1.3242836E-1,3.788236E-1,-7.140441E-1,-8.3255994E-1,4.1555712E-1,-1.0770667E0,-4.4543765E-2,2.2541922E-1,-6.263065E-2,-1.0294902E-1,7.959423E-1,-1.0428718E0,-3.3266112E-1,-1.054856E0,1.02763556E-1,-8.863085E-3,1.115754E-1,-1.12315826E-1,-7.643024E-1,1.0643063E-1,-1.047179E-1,2.527653E-1,-1.1065949E0,-9.6548805E-3,-1.4891408E-1,1.0938688E-1,-9.142511E-2,-4.6673146E-1,-1.1550864E0,1.1397303E0,-6.362914E-1,-1.0850791E-1,-5.741042E-1,5.7410157E-1,-1.14782095E-1,1.03117004E-1,-1.11902595E-1,-1.973583E-2,3.2719884E-2,9.166766E-2,-1.1858989E-1,-1.0993575E-2,1.06666185E-1,3.6539143E-1,-9.345503E-2,-1.1606436E-1,-2.9521344E-2,1.7310318E-1,-9.495683E-2,-1.1388171E-1,4.040204E-3,7.0513435E-2,-9.6090995E-2,-1.01307765E-1,1.14625864E-1],"categories":[],"categories_nodes":[],"categories_segments":[],"categories_sizes":[],"default_left":[0,0,0,0,0,0,0,0,0,0,0,0,0,0,0,0,0,0,0,0,0,0,0,0,0,0,0,0,0,0,0,0,0,0,0,0,0,0,0,0,0,0,0,0,0,0,0,0,0,0,0,0,0,0,0,0,0,0,0,0,0,0,0],"id":14,"left_children":[1,3,5,7,9,11,13,-1,15,17,19,21,23,25,27,29,31,-1,33,35,37,39,-1,41,-1,-1,43,-1,-1,45,47,49,-1,-1,-1,51,53,55,57,-1,59,61,-1,-1,-1,-1,-1,-1,-1,-1,-1,-1,-1,-1,-1,-1,-1,-1,-1,-1,-1,-1,-1],"loss_changes":[4.7725043E2,1.5151212E2,3.690561E1,8.172176E1,3.56728E1,4.393669E1,1.8907776E1,0E0,7.566969E1,2.0828474E1,3.2662415E1,3.496546E1,1.2863486E1,4.9465637E0,2.2955046E1,1.0316905E2,1.0180059E2,0E0,1.4676653E1,8.568741E0,5.5864086E1,4.476471E-1,0E0,1.9197968E1,0E0,0E0,3.6088135E1,0E0,0E0,9.282628E1,1.0234428E1,1.4043675E2,0E0,0E0,0E0,5.0920563E1,2.1757507E-1,2.8135632E1,3.503504E1,0E0,3.8848393E0,1.8538084E1,0E0,0E0,0E0,0E0,0E0,0E0,0E0,0E0,0E0,0E0,0E0,0E0,0E0,0E0,0E0,0E0,0E0,0E0,0E0,0E0,0E0],"parents":[2147483647,0,0,1,1,2,2,3,3,4,4,5,5,6,6,8,8,9,9,10,10,11,11,12,12,13,13,14,14,15,15,16,16,18,18,19,19,20,20,21,21,23,23,26,26,29,29,30,30,31,31,35,35,36,36,37,37,38,38,40,40,41,41],"right_children":[2,4,6,8,10,12,14,-1,16,18,20,22,24,26,28,30,32,-1,34,36,38,40,-1,42,-1,-1,44,-1,-1,46,48,50,-1,-1,-1,52,54,56,58,-1,60,62,-1,-1,-1,-1,-1,-1,-1,-1,-1,-1,-1,-1,-1,-1,-1,-1,-1,-1,-1,-1,-1],"split_conditions":[5.102885E-2,1.8394256E-2,-2.2123902E-1,-3.610251E-1,-3.7897432E-1,-1.4340417E-1,5.465489E0,1.3206153E-1,-2.653977E-1,-7.339012E-1,-3.5990834E-2,1.4619132E0,-2.0504291E-1,1.6843342E0,-3.7047622E-1,-1.2570867E-1,1.6980036E0,-1.0294902E-1,1.8480624E-1,-9.856919E-2,1.4531566E-1,-3.4313196E-1,1.02763556E-1,1.3215925E-1,1.115754E-1,-1.12315826E-1,1.8878255E0,1.0643063E-1,-1.047179E-1,-4.244918E-1,-6.1559224E-1,1.2956465E0,-1.4891408E-1,1.0938688E-1,-9.142511E-2,-3.6313128E-1,5.84827E-2,5.84195E-1,1.0400175E0,-1.0850791E-1,5.3611803E-1,-3.1577557E-1,-1.14782095E-1,1.03117004E-1,-1.11902595E-1,-1.973583E-2,3.2719884E-2,9.166766E-2,-1.1858989E-1,-1.0993575E-2,1.06666185E-1,3.6539143E-1,-9.345503E-2,-1.1606436E-1,-2.9521344E-2,1.7310318E-1,-9.495683E-2,-1.1388171E-1,4.040204E-3,7.0513435E-2,-9.6090995E-2,-1.01307765E-1,1.14625864E-1],"split_indices":[3,5,5,5,4,9,4,0,4,4,8,4,6,4,7,2,7,0,5,6,8,9,0,2,0,0,4,0,0,3,4,8,0,0,0,2,2,5,8,0,3,6,0,0,0,0,0,0,0,0,0,0,0,0,0,0,0,0,0,0,0,0,0],"split_type":[0,0,0,0,0,0,0,0,0,0,0,0,0,0,0,0,0,0,0,0,0,0,0,0,0,0,0,0,0,0,0,0,0,0,0,0,0,0,0,0,0,0,0,0,0,0,0,0,0,0,0,0,0,0,0,0,0,0,0,0,0,0,0],"sum_hessian":[5.066454E3,4.522937E3,5.435173E2,4.227662E3,2.952745E2,1.2318766E2,4.203296E2,5.771611E1,4.1699463E3,3.30618E1,2.622127E2,8.093543E1,4.2252228E1,4.0168478E2,1.8644789E1,2.8236611E3,1.346285E3,7.219288E0,2.584251E1,1.3987677E2,1.2233594E2,7.268268E1,8.252752E0,2.6921352E1,1.5330876E1,3.4783408E2,5.3850716E1,8.824239E0,9.820549E0,2.7676519E3,5.6009315E1,1.2990494E3,4.723555E1,2.2315407E1,3.527103E0,2.3643572E1,1.1623321E2,2.0443892E1,1.01892044E2,6.720095E1,5.481731E0,1.8135044E1,8.786307E0,8.569301E0,4.5281418E1,3.9248953E2,2.3751624E3,1.7142742E0,5.429504E1,1.1891534E3,1.0989604E2,1.7162195E0,2.1927351E1,1.151393E2,1.093908E0,1.6067917E1,4.3759737E0,5.807874E1,4.381331E1,1.0816257E0,4.4001055E0,4.601031E0,1.3534014E1],"tree_param":{"num_deleted":"0","num_feature":"10","num_nodes":"63","size_leaf_vector":"1"}},{"base_weights":[-5.9271394E-3,9.148384E-2,-8.755216E-1,1.3529918E-1,-5.689571E-1,-3.9506495E-1,-1.0161114E0,3.2314157E-1,4.2585798E-2,-3.9787058E-2,-7.788042E-1,-8.143608E-1,4.0397546E-1,-1.0614632E0,-4.327453E-2,-1.2476516E0,4.091466E-1,-2.1246769E-2,7.2899234E-1,1.4516935E0,-4.2653814E-1,-1.1294668E0,-5.174839E-1,-1.0333189E0,1.0057054E-1,-1.1950299E-2,1.0865613E-1,-1.1072328E-1,-7.5049907E-1,1.0393353E-1,-1.0256077E-1,-1.8414307E0,1.3097237E-1,5.138873E-1,-8.158508E-1,-1.3201453E-1,4.3064353E-1,-2.0263736E0,9.1445327E-1,1.04987875E-1,2.79219E-1,-9.637216E-1,7.077189E-1,-1.137028E-1,-3.7529986E-2,1.1621887E-1,-9.342856E-1,-1.0652323E-1,-5.4472405E-1,5.591239E-1,-1.1136657E-1,1.00941494E-1,-1.10203564E-1,-1.522475E-1,-2.1002042E-1,5.6618255E-2,-1.7440347E-1,4.4776704E-2,-1.997422E-1,2.587152E-2,-4.3679398E-2,-1.3894467E-1,5.622669E-2,-2.4862078E-1,-1.3683033E-1,1.12951554E-1,-8.246779E-2,-1.0220112E-1,6.83282E-2,-9.099206E-2,1.0555682E-1,1.3933836E-1,-6.0688138E-2,3.0770535E-2,-1.1278367E-1,6.574055E-2,-9.3579836E-2,-9.829195E-2,1.1256354E-1],"categories":[],"categories_nodes":[],"categories_segments":[],"categories_sizes":[],"default_left":[0,0,0,0,0,0,0,0,0,0,0,0,0,0,0,0,0,0,0,0,0,0,0,0,0,0,0,0,0,0,0,0,0,0,0,0,0,0,0,0,0,0,0,0,0,0,0,0,0,0,0,0,0,0,0,0,0,0,0,0,0,0,0,0,0,0,0,0,0,0,0,0,0,0,0,0,0,0,0],"id":15,"left_children":[1,3,5,7,9,11,13,15,17,19,21,23,25,27,29,31,33,35,37,39,41,43,45,47,-1,49,-1,-1,51,-1,-1,53,-1,55,57,59,61,63,65,-1,-1,67,69,-1,-1,71,73,-1,75,77,-1,-1,-1,-1,-1,-1,-1,-1,-1,-1,-1,-1,-1,-1,-1,-1,-1,-1,-1,-1,-1,-1,-1,-1,-1,-1,-1,-1,-1],"loss_changes":[4.211666E2,1.294616E2,3.3429626E1,7.302364E1,3.088021E1,3.8863426E1,1.7021118E1,1.8772E2,1.2309496E2,4.6821884E1,1.7675644E1,3.1232769E1,1.1440682E1,4.428894E0,2.0498674E1,1.12020966E2,1.6908774E2,1.2874962E2,1.2400137E2,6.074524E0,3.9907345E1,5.366516E-2,3.0754326E1,4.8195648E-1,0E0,1.6981205E1,0E0,0E0,3.2367325E1,0E0,0E0,1.6718445E0,0E0,1.4405573E2,1.5607095E2,2.4610403E2,1.2209323E2,1.2537537E0,8.495413E1,0E0,0E0,4.9330673E0,1.2927165E1,0E0,0E0,4.4180977E1,1.7198711E1,0E0,3.540871E0,1.6647457E1,0E0,0E0,0E0,0E0,0E0,0E0,0E0,0E0,0E0,0E0,0E0,0E0,0E0,0E0,0E0,0E0,0E0,0E0,0E0,0E0,0E0,0E0,0E0,0E0,0E0,0E0,0E0,0E0,0E0],"parents":[2147483647,0,0,1,1,2,2,3,3,4,4,5,5,6,6,7,7,8,8,9,9,10,10,11,11,12,12,13,13,14,14,15,15,16,16,17,17,18,18,19,19,20,20,21,21,22,22,23,23,25,25,28,28,31,31,33,33,34,34,35,35,36,36,37,37,38,38,41,41,42,42,45,45,46,46,48,48,49,49],"right_children":[2,4,6,8,10,12,14,16,18,20,22,24,26,28,30,32,34,36,38,40,42,44,46,48,-1,50,-1,-1,52,-1,-1,54,-1,56,58,60,62,64,66,-1,-1,68,70,-1,-1,72,74,-1,76,78,-1,-1,-1,-1,-1,-1,-1,-1,-1,-1,-1,-1,-1,-1,-1,-1,-1,-1,-1,-1,-1,-1,-1,-1,-1,-1,-1,-1,-1],"split_conditions":[5.102885E-2,1.8394256E-2,-2.2123902E-1,-3.467383E-1,-5.59797E-2,-1.4340417E-1,5.465489E0,-6.7238057E-1,1.4326701E0,-3.9644882E-1,-1.8467075E-1,1.4619132E0,-2.0504291E-1,1.6843342E0,-3.7047622E-1,1.6122669E-1,-1.280483E-1,-1.4801773E-1,-3.1577557E-1,-3.7897432E-1,1.0400175E0,3.2252904E-3,9.963285E-2,-3.4313196E-1,1.0057054E-1,1.3215925E-1,1.0865613E-1,-1.1072328E-1,1.8878255E0,1.0393353E-1,-1.0256077E-1,-4.244918E-1,1.3097237E-1,1.8860472E0,-7.4938613E-1,-2.731861E-1,-8.892421E-1,-2.9654202E-1,-1.3470477E-1,1.04987875E-1,2.79219E-1,3.2252904E-3,-3.6313128E-1,-1.137028E-1,-3.7529986E-2,-1.4340417E-1,7.904534E-3,-1.0652323E-1,5.3611803E-1,-3.1577557E-1,-1.1136657E-1,1.00941494E-1,-1.10203564E-1,-1.522475E-1,-2.1002042E-1,5.6618255E-2,-1.7440347E-1,4.4776704E-2,-1.997422E-1,2.587152E-2,-4.3679398E-2,-1.3894467E-1,5.622669E-2,-2.4862078E-1,-1.3683033E-1,1.12951554E-1,-8.246779E-2,-1.0220112E-1,6.83282E-2,-9.099206E-2,1.0555682E-1,1.3933836E-1,-6.0688138E-2,3.0770535E-2,-1.1278367E-1,6.574055E-2,-9.3579836E-2,-9.829195E-2,1.1256354E-1],"split_indices":[3,5,5,2,6,9,4,4,8,3,8,4,6,4,7,6,5,5,6,4,8,2,7,9,0,2,0,0,4,0,0,3,0,7,8,6,9,2,5,0,0,2,2,0,0,9,6,0,3,6,0,0,0,0,0,0,0,0,0,0,0,0,0,0,0,0,0,0,0,0,0,0,0,0,0,0,0,0,0],"split_type":[0,0,0,0,0,0,0,0,0,0,0,0,0,0,0,0,0,0,0,0,0,0,0,0,0,0,0,0,0,0,0,0,0,0,0,0,0,0,0,0,0,0,0,0,0,0,0,0,0,0,0,0,0,0,0,0,0,0,0,0,0,0,0,0,0,0,0,0,0,0,0,0,0,0,0,0,0,0,0],"sum_hessian":[4.970033E3,4.470183E3,4.9985004E2,4.192816E3,2.77367E2,1.1401641E2,3.8583362E2,1.3847505E3,2.8080657E3,7.9097336E1,1.9826965E2,7.476458E1,3.925183E1,3.685609E2,1.7272709E1,7.118179E1,1.3135687E3,2.5700337E3,2.3803194E2,1.5720126E1,6.3377213E1,8.324373E1,1.1502593E2,6.7121925E1,7.642657E0,2.5000536E1,1.4251293E1,3.1904172E2,4.951919E1,8.189356E0,9.083353E0,5.7996048E1,1.3185743E1,1.2106365E3,1.029323E2,2.064652E3,5.0538153E2,1.438531E1,2.2364664E2,1.346668E1,2.2534459E0,4.311047E1,2.026674E1,8.19148E1,1.3289227E0,4.592421E1,6.910172E1,6.189871E1,5.2232184E0,1.6789957E1,8.210578E0,7.9329E0,4.1586292E1,2.9060493E1,2.8935556E1,1.1839641E3,2.6672289E1,5.0039337E1,5.289296E1,9.048186E2,1.1598336E3,3.343841E1,4.719431E2,6.8327923E0,7.552518E0,1.993459E2,2.4300732E1,4.2003387E1,1.1070812E0,3.3008072E0,1.6965935E1,1.6266607E1,2.96576E1,9.23732E0,5.9864403E1,1.1149455E0,4.108273E0,4.313522E0,1.2476437E1],"tree_param":{"num_deleted":"0","num_feature":"10","num_nodes":"79","size_leaf_vector":"1"}},{"base_weights":[-5.8703423E-3,8.330802E-2,-8.618213E-1,1.1114488E-1,-8.691675E-1,-3.8602138E-1,-1.0021937E0,1.2895496E-1,-1.2216209E0,-1.2472609E0,1.1240208E0,-7.97093E-1,3.9281747E-1,-1.0473846E0,-4.2065203E-2,9.992492E-2,8.563327E-1,-1.2414515E0,-1.8030046E-2,-1.6425929E0,-1.0875285E0,1.3891017E-1,-7.694145E-2,-1.0129982E0,9.849259E-2,-9.547506E-2,5.8434254E-1,-1.09290145E-1,-7.3769337E-1,1.01602845E-1,-1.0052812E-1,1.3043663E-1,-1.807081E0,-1.5713747E0,1.1322764E0,-1.8025711E-1,-1.1480489E-1,-1.9742852E-1,-1.031821E-1,-7.505415E-1,-1.1678711E-1,-1.04667805E-1,-5.1714414E-1,-8.974361E-2,7.887948E-1,9.888164E-2,-1.0866499E-1,1.2669764E-1,1.1494524E-2,-1.9723023E-1,-1.2194251E-1,-2.9037928E-2,-1.6497044E-1,1.4605652E-1,-4.8428974E-3,-1.0795119E-1,5.7295184E-3,6.1351042E-2,-9.118211E-2,1.0660609E-1,-2.1913677E-2],"categories":[],"categories_nodes":[],"categories_segments":[],"categories_sizes":[],"default_left":[0,0,0,0,0,0,0,0,0,0,0,0,0,0,0,0,0,0,0,0,0,0,0,0,0,0,0,0,0,0,0,0,0,0,0,0,0,0,0,0,0,0,0,0,0,0,0,0,0,0,0,0,0,0,0,0,0,0,0,0,0],"id":16,"left_children":[1,3,5,7,9,11,13,15,17,19,21,23,25,27,29,31,33,35,-1,37,39,-1,-1,41,-1,-1,43,-1,45,-1,-1,47,49,51,53,-1,-1,-1,-1,55,-1,-1,57,-1,59,-1,-1,-1,-1,-1,-1,-1,-1,-1,-1,-1,-1,-1,-1,-1,-1],"loss_changes":[3.7232446E2,1.1722194E2,3.0351929E1,1.0205791E2,9.601966E1,3.4401855E1,1.5348724E1,8.9387245E1,9.471512E-1,4.90773E0,1.1380571E1,2.7938309E1,1.0224272E1,3.9691772E0,1.833616E1,2.3738757E2,1.1063185E2,8.381195E-1,0E0,3.746132E0,1.2477341E0,0E0,0E0,5.09964E-1,0E0,0E0,1.0830375E1,0E0,2.9082163E1,0E0,0E0,7.050085E1,3.8333435E0,1.2270355E0,5.685028E1,0E0,0E0,0E0,0E0,4.81975E0,0E0,0E0,3.2280588E0,0E0,8.58786E0,0E0,0E0,0E0,0E0,0E0,0E0,0E0,0E0,0E0,0E0,0E0,0E0,0E0,0E0,0E0,0E0],"parents":[2147483647,0,0,1,1,2,2,3,3,4,4,5,5,6,6,7,7,8,8,9,9,10,10,11,11,12,12,13,13,14,14,15,15,16,16,17,17,19,19,20,20,23,23,26,26,28,28,31,31,32,32,33,33,34,34,39,39,42,42,44,44],"right_children":[2,4,6,8,10,12,14,16,18,20,22,24,26,28,30,32,34,36,-1,38,40,-1,-1,42,-1,-1,44,-1,46,-1,-1,48,50,52,54,-1,-1,-1,-1,56,-1,-1,58,-1,60,-1,-1,-1,-1,-1,-1,-1,-1,-1,-1,-1,-1,-1,-1,-1,-1],"split_conditions":[5.102885E-2,1.1827041E0,-2.2123902E-1,6.211932E-1,9.915666E-1,-1.4340417E-1,5.465489E0,6.66877E-1,1.2278947E0,1.5470957E0,-3.6313128E-1,1.4619132E0,-3.1577557E-1,1.6843342E0,-3.7047622E-1,4.4918847E-1,-2.4066709E-1,-1.280483E-1,-1.8030046E-2,-1.4801773E-1,1.8878255E0,1.3891017E-1,-7.694145E-2,-3.4313196E-1,9.849259E-2,-9.547506E-2,-1.3106943E0,-1.09290145E-1,1.8878255E0,1.01602845E-1,-1.0052812E-1,-3.610251E-1,-6.14835E-2,-1.441895E0,-1.3264078E-1,-1.8025711E-1,-1.1480489E-1,-1.9742852E-1,-1.031821E-1,1.7269254E0,-1.1678711E-1,-1.04667805E-1,5.3611803E-1,-8.974361E-2,-4.1210082E-1,9.888164E-2,-1.0866499E-1,1.2669764E-1,1.1494524E-2,-1.9723023E-1,-1.2194251E-1,-2.9037928E-2,-1.6497044E-1,1.4605652E-1,-4.8428974E-3,-1.0795119E-1,5.7295184E-3,6.1351042E-2,-9.118211E-2,1.0660609E-1,-2.1913677E-2],"split_indices":[3,4,5,6,9,9,4,4,7,4,2,4,6,4,7,4,6,5,0,5,4,0,0,9,0,0,7,0,4,0,0,5,5,0,6,0,0,0,0,4,0,0,3,0,4,0,0,0,0,0,0,0,0,0,0,0,0,0,0,0,0],"split_type":[0,0,0,0,0,0,0,0,0,0,0,0,0,0,0,0,0,0,0,0,0,0,0,0,0,0,0,0,0,0,0,0,0,0,0,0,0,0,0,0,0,0,0,0,0,0,0,0,0,0,0,0,0,0,0,0,0,0,0,0,0],"sum_hessian":[4.875739E3,4.4165024E3,4.5923636E2,4.29195E3,1.24552376E2,1.0547457E2,3.5376178E2,4.236243E3,5.5706753E1,1.05007454E2,1.9544918E1,6.902152E1,3.645304E1,3.3777277E2,1.5989038E1,4.074755E3,1.6148831E2,5.447712E1,1.229635E0,2.7546778E1,7.746068E1,1.7378313E1,2.1666045E0,6.194764E1,7.0738854E0,4.040332E0,3.2412712E1,2.9228522E2,4.548754E1,7.59314E0,8.395899E0,4.0115034E3,6.3251637E1,1.6002897E1,1.4548541E2,5.1627593E0,4.931436E1,1.6405169E1,1.1141609E1,1.6903378E1,6.05573E1,5.696739E1,4.980251E0,3.519013E0,2.8893698E1,7.339707E0,3.8147835E1,5.2856464E1,3.9586467E3,4.7531715E1,1.5719922E1,1.1933957E0,1.4809503E1,1.1364892E2,3.1836493E1,1.17728815E1,5.130497E0,1.1451654E0,3.8350854E0,2.2614998E1,6.2787004E0],"tree_param":{"num_deleted":"0","num_feature":"10","num_nodes":"61","size_leaf_vector":"1"}},{"base_weights":[-5.943944E-3,7.532984E-2,-8.4892964E-1,1.005868E-1,-8.3846366E-1,-3.7757584E-1,-9.8949355E-1,1.167367E-1,-1.1919105E0,-1.2042385E0,1.072058E0,-7.80542E-1,3.7722498E-1,-1.0345902E0,-4.090421E-2,9.027434E-2,8.0417067E-1,-1.2128756E0,-1.7071377E-2,-1.5316856E0,-1.056207E0,1.3275757E-1,-7.48372E-2,-9.9362725E-1,9.6506916E-2,-3.1382937E-2,1.051169E-1,-1.0799155E0,-7.256958E-1,9.9406935E-2,-9.8595314E-2,1.17903985E-1,-1.6537032E0,-1.4555327E0,1.0665865E0,-1.6483438E-1,-1.1287276E-1,-1.15831934E-1,-1.7624801E-1,-6.555284E-1,-1.11702226E-1,-3.1290838E-1,-1.0156851E0,5.392365E-1,-1.0727348E-1,-7.5723755E-1,-1.0907429E-1,9.69144E-2,-1.07260756E-1,2.4860496E-2,-1.080883E-3,-1.7200952E-2,-1.6755478E-1,-2.7439717E-2,-1.5289879E-1,1.392146E-1,-4.3752617E-3,-1.0476911E-1,8.638386E-2,-6.653636E-2,2.347341E-2,-4.3630358E-2,-1.0299473E-1,-9.282311E-2,1.0976076E-1,3.2012444E-2,-9.044692E-2],"categories":[],"categories_nodes":[],"categories_segments":[],"categories_sizes":[],"default_left":[0,0,0,0,0,0,0,0,0,0,0,0,0,0,0,0,0,0,0,0,0,0,0,0,0,0,0,0,0,0,0,0,0,0,0,0,0,0,0,0,0,0,0,0,0,0,0,0,0,0,0,0,0,0,0,0,0,0,0,0,0,0,0,0,0,0,0],"id":17,"left_children":[1,3,5,7,9,11,13,15,17,19,21,23,25,27,29,31,33,35,-1,37,39,-1,-1,41,-1,43,-1,45,47,-1,-1,49,51,53,55,-1,-1,-1,-1,57,-1,59,61,63,-1,65,-1,-1,-1,-1,-1,-1,-1,-1,-1,-1,-1,-1,-1,-1,-1,-1,-1,-1,-1,-1,-1],"loss_changes":[3.2939786E2,1.0129175E2,2.7637268E1,8.9229866E1,8.37875E1,3.0324736E1,1.3862274E1,7.662708E1,9.225464E-1,3.2077637E0,1.006328E1,2.5022682E1,9.681813E0,3.560028E0,1.6426762E1,1.95884E2,9.4153824E1,2.7946472E-2,0E0,4.378357E-1,1.0168533E0,0E0,0E0,5.5529785E-1,0E0,1.4117177E1,0E0,1.1212158E-1,2.6173248E1,0E0,0E0,6.7273346E1,1.763977E0,1.0268288E0,5.0845917E1,0E0,0E0,0E0,0E0,7.9833493E0,0E0,7.874231E-1,1.2367249E-2,1.362462E1,0E0,2.1910157E0,0E0,0E0,0E0,0E0,0E0,0E0,0E0,0E0,0E0,0E0,0E0,0E0,0E0,0E0,0E0,0E0,0E0,0E0,0E0,0E0,0E0],"parents":[2147483647,0,0,1,1,2,2,3,3,4,4,5,5,6,6,7,7,8,8,9,9,10,10,11,11,12,12,13,13,14,14,15,15,16,16,17,17,19,19,20,20,23,23,25,25,27,27,28,28,31,31,32,32,33,33,34,34,39,39,41,41,42,42,43,43,45,45],"right_children":[2,4,6,8,10,12,14,16,18,20,22,24,26,28,30,32,34,36,-1,38,40,-1,-1,42,-1,44,-1,46,48,-1,-1,50,52,54,56,-1,-1,-1,-1,58,-1,60,62,64,-1,66,-1,-1,-1,-1,-1,-1,-1,-1,-1,-1,-1,-1,-1,-1,-1,-1,-1,-1,-1,-1,-1],"split_conditions":[5.102885E-2,1.1827041E0,-2.2123902E-1,6.211932E-1,9.915666E-1,-1.4340417E-1,5.465489E0,6.66877E-1,1.2278947E0,-2.305966E-1,-3.6313128E-1,1.4619132E0,-2.0504291E-1,1.6843342E0,-3.7047622E-1,4.4918847E-1,-2.4066709E-1,-1.280483E-1,-1.7071377E-2,8.5066825E-1,-1.172508E0,1.3275757E-1,-7.48372E-2,-2.9654202E-1,9.6506916E-2,1.3215925E-1,1.051169E-1,-2.0126957E-1,1.8878255E0,9.9406935E-2,-9.8595314E-2,-2.5189134E-1,-2.0686283E0,-1.441895E0,-1.3264078E-1,-1.6483438E-1,-1.1287276E-1,-1.15831934E-1,-1.7624801E-1,-1.2511392E0,-1.11702226E-1,-7.4938613E-1,-3.4771213E-1,-3.1577557E-1,-1.0727348E-1,4.0063564E-2,-1.0907429E-1,9.69144E-2,-1.07260756E-1,2.4860496E-2,-1.080883E-3,-1.7200952E-2,-1.6755478E-1,-2.7439717E-2,-1.5289879E-1,1.392146E-1,-4.3752617E-3,-1.0476911E-1,8.638386E-2,-6.653636E-2,2.347341E-2,-4.3630358E-2,-1.0299473E-1,-9.282311E-2,1.0976076E-1,3.2012444E-2,-9.044692E-2],"split_indices":[3,4,5,6,9,9,4,4,7,6,2,4,6,4,7,4,6,5,0,7,0,0,0,2,0,2,0,5,4,0,0,6,0,0,6,0,0,0,0,0,0,8,5,6,0,2,0,0,0,0,0,0,0,0,0,0,0,0,0,0,0,0,0,0,0,0,0],"split_type":[0,0,0,0,0,0,0,0,0,0,0,0,0,0,0,0,0,0,0,0,0,0,0,0,0,0,0,0,0,0,0,0,0,0,0,0,0,0,0,0,0,0,0,0,0,0,0,0,0,0,0,0,0,0,0,0,0,0,0,0,0,0,0,0,0,0,0],"sum_hessian":[4.8059077E3,4.3841357E3,4.2177185E2,4.267085E3,1.1705097E2,9.773217E1,3.2403967E2,4.2153237E3,5.1761265E1,9.855249E1,1.849848E1,6.36938E1,3.4038364E1,3.092472E2,1.4792501E1,4.0601614E3,1.551622E2,5.0536057E1,1.2252071E0,2.7772505E1,7.077999E1,1.645901E1,2.0394704E0,5.7148518E1,6.5452843E0,2.1784187E1,1.2254178E1,2.6749982E2,4.174736E1,7.0355854E0,7.7569165E0,3.9977578E3,6.240365E1,1.5670911E1,1.3949129E2,5.173657E0,4.53624E1,1.2908577E1,1.4863928E1,1.0879572E1,5.9900417E1,2.2703416E0,5.4878178E1,1.4384325E1,7.399861E0,1.0987468E1,2.5651236E2,6.788494E0,3.4958862E1,1.9830972E3,2.0146605E3,1.0355848E0,6.1368065E1,1.1947812E0,1.447613E1,1.0766834E2,3.1822947E1,8.894311E0,1.9852614E0,1.2505469E0,1.0197947E0,2.077413E0,5.2800762E1,3.7821038E0,1.06022215E1,1.1798282E0,9.807639E0],"tree_param":{"num_deleted":"0","num_feature":"10","num_nodes":"67","size_leaf_vector":"1"}},{"base_weights":[-6.011715E-3,6.8113975E-2,-8.370332E-1,9.103866E-2,-8.123129E-1,-3.6944675E-1,-9.778612E-1,1.0570077E-1,-1.1648251E0,-1.167822E0,1.0269991E0,-7.645521E-1,3.6696038E-1,-1.0229189E0,-3.9780345E-2,8.155059E-2,7.583987E-1,-1.187066E-1,-1.616392E-2,-8.596494E-1,-1.2961938E0,1.275286E-1,-7.280145E-2,-9.7476363E-1,9.459453E-2,-3.4254245E-2,1.022531E-1,-1.0681051E0,-7.1434444E-1,9.731981E-2,-9.674172E-2,1.0655935E-1,-1.5402184E0,-1.3608233E0,1.0085049E0,-1.1315851E-2,-1.0500433E0,-1.503006E-1,-1.11564875E-1,-1.0130316E-1,-4.5203832E-1,5.257814E-1,-1.0446916E-1,-7.303321E-1,-1.07980065E-1,9.502068E-2,-1.05968714E-1,1.224947E-1,9.248244E-3,-1.6319092E-2,-1.5611273E-1,-2.5934657E-2,-1.4312892E-1,1.334238E-1,-3.952628E-3,1.2232597E-1,-8.9679025E-2,-1.0907336E-1,-4.3644723E-2,6.0288746E-2,-8.687011E-2,-9.030877E-2,1.07964896E-1,2.9833157E-2,-8.831835E-2],"categories":[],"categories_nodes":[],"categories_segments":[],"categories_sizes":[],"default_left":[0,0,0,0,0,0,0,0,0,0,0,0,0,0,0,0,0,0,0,0,0,0,0,0,0,0,0,0,0,0,0,0,0,0,0,0,0,0,0,0,0,0,0,0,0,0,0,0,0,0,0,0,0,0,0,0,0,0,0,0,0,0,0,0,0],"id":18,"left_children":[1,3,5,7,9,11,13,15,17,19,21,23,25,27,29,31,33,-1,-1,35,37,-1,-1,39,-1,41,-1,43,45,-1,-1,47,49,51,53,55,57,-1,-1,-1,59,61,-1,63,-1,-1,-1,-1,-1,-1,-1,-1,-1,-1,-1,-1,-1,-1,-1,-1,-1,-1,-1,-1,-1],"loss_changes":[2.9189093E2,8.788252E1,2.519159E1,7.82153E1,7.345789E1,2.6882387E1,1.2539124E1,6.603112E1,9.019623E-1,2.5677872E0,8.95981E0,2.2433968E1,8.609869E0,3.196106E0,1.4736549E1,1.6420236E2,8.060474E1,0E0,0E0,4.888382E0,7.0298004E-1,0E0,0E0,6.177139E-1,0E0,1.2541079E1,0E0,1.8182373E-1,2.3590885E1,0E0,0E0,6.2608704E1,1.515564E0,8.866081E-1,4.5893402E1,8.28128E0,1.4231873E-1,0E0,0E0,0E0,2.9297411E0,1.2291842E1,0E0,2.041955E0,0E0,0E0,0E0,0E0,0E0,0E0,0E0,0E0,0E0,0E0,0E0,0E0,0E0,0E0,0E0,0E0,0E0,0E0,0E0,0E0,0E0],"parents":[2147483647,0,0,1,1,2,2,3,3,4,4,5,5,6,6,7,7,8,8,9,9,10,10,11,11,12,12,13,13,14,14,15,15,16,16,19,19,20,20,23,23,25,25,27,27,28,28,31,31,32,32,33,33,34,34,35,35,36,36,40,40,41,41,43,43],"right_children":[2,4,6,8,10,12,14,16,18,20,22,24,26,28,30,32,34,-1,-1,36,38,-1,-1,40,-1,42,-1,44,46,-1,-1,48,50,52,54,56,58,-1,-1,-1,60,62,-1,64,-1,-1,-1,-1,-1,-1,-1,-1,-1,-1,-1,-1,-1,-1,-1,-1,-1,-1,-1,-1,-1],"split_conditions":[5.102885E-2,1.1827041E0,-2.2123902E-1,6.211932E-1,9.915666E-1,-1.4340417E-1,5.465489E0,6.66877E-1,1.2278947E0,-9.5409757E-1,-3.6313128E-1,1.4619132E0,-2.0504291E-1,1.6843342E0,-3.7047622E-1,4.4918847E-1,-2.4066709E-1,-1.187066E-1,-1.616392E-2,-3.1278807E-1,-2.0126957E-1,1.275286E-1,-7.280145E-2,-3.4313196E-1,9.459453E-2,1.3215925E-1,1.022531E-1,-2.0126957E-1,1.8878255E0,9.731981E-2,-9.674172E-2,-3.610251E-1,-2.0686283E0,-1.441895E0,-1.3264078E-1,1.8878255E0,5.465489E0,-1.503006E-1,-1.11564875E-1,-1.0130316E-1,5.3611803E-1,-3.1577557E-1,-1.0446916E-1,4.0063564E-2,-1.07980065E-1,9.502068E-2,-1.05968714E-1,1.224947E-1,9.248244E-3,-1.6319092E-2,-1.5611273E-1,-2.5934657E-2,-1.4312892E-1,1.334238E-1,-3.952628E-3,1.2232597E-1,-8.9679025E-2,-1.0907336E-1,-4.3644723E-2,6.0288746E-2,-8.687011E-2,-9.030877E-2,1.07964896E-1,2.9833157E-2,-8.831835E-2],"split_indices":[3,4,5,6,9,9,4,4,7,9,2,4,6,4,7,4,6,0,0,3,5,0,0,9,0,2,0,5,4,0,0,5,0,0,6,4,4,0,0,0,3,6,0,2,0,0,0,0,0,0,0,0,0,0,0,0,0,0,0,0,0,0,0,0,0],"split_type":[0,0,0,0,0,0,0,0,0,0,0,0,0,0,0,0,0,0,0,0,0,0,0,0,0,0,0,0,0,0,0,0,0,0,0,0,0,0,0,0,0,0,0,0,0,0,0,0,0,0,0,0,0,0,0,0,0,0,0,0,0,0,0,0,0],"sum_hessian":[4.7365605E3,4.34951E3,3.8705075E2,4.2400044E3,1.0950529E2,9.0428276E1,2.9662247E2,4.1919795E3,4.8025177E1,9.207397E1,1.743132E1,5.882735E1,3.1600925E1,2.8294183E2,1.3680654E1,4.043493E3,1.4848645E2,4.680422E1,1.2209575E0,2.9338894E1,6.2735077E1,1.5510371E1,1.920949E0,5.277206E1,6.0552917E0,2.0191381E1,1.1409544E1,2.4465446E2,3.828735E1,6.516035E0,7.164619E0,3.9830066E3,6.048631E1,1.5205428E1,1.3328102E2,5.571872E0,2.3767021E1,2.5826424E1,3.6908653E1,4.829823E1,4.473829E0,1.3299677E1,6.891706E0,1.0311087E1,2.3434338E2,6.2776413E0,3.200971E1,4.8440876E1,3.9345657E3,1.0363876E0,5.944992E1,1.1956873E0,1.4009741E1,1.0147042E2,3.1810598E1,2.167857E0,3.404015E0,2.1559694E1,2.2073274E0,1.1401647E0,3.333664E0,3.539068E0,9.760609E0,1.2108047E0,9.100282E0],"tree_param":{"num_deleted":"0","num_feature":"10","num_nodes":"65","size_leaf_vector":"1"}},{"base_weights":[-5.964112E-3,6.1613306E-2,-8.2575333E-1,1.5199527E-1,-1.4549005E-1,-3.6113396E-1,-9.670894E-1,1.18956394E-1,1.0583907E0,-1.0331786E-1,-1.7746954E0,-1.0532071E-1,5.4676544E-2,-1.0121651E0,-3.8687043E-2,1.4481506E-1,-2.0993943E0,1.323875E-1,-2.970841E-1,-7.0249885E-1,2.4274215E-3,-2.1474583E-1,-1.2741452E0,-1.9404899E-1,1.0639747E-1,-1.0572628E0,-7.0350057E-1,9.531986E-2,-9.495011E-2,5.040422E-1,4.056458E-2,-1.7678583E0,-3.374199E-1,2.8834048E-1,-1.465441E0,1.3242788E0,-6.887589E-2,-1.3471603E-1,-5.1042326E-2,2.3746213E-1,-1.0584545E-1,-7.037899E-1,-1.0699239E-1,9.3184546E-2,-1.0476982E-1,2.6996362E-3,9.533622E-2,-1.6592523E-1,7.2904998E-3,-1.8924373E-1,-1.0310502E-1,-3.0852893E-2,1.5368448E-1,1.4525467E-1,-1.8496436E-1,1.6942622E-1,-1.072618E-1,-1.5020658E-1,1.3426291E-3,-9.481838E-2,5.505792E-2,6.342586E-3,-9.520417E-2],"categories":[],"categories_nodes":[],"categories_segments":[],"categories_sizes":[],"default_left":[0,0,0,0,0,0,0,0,0,0,0,0,0,0,0,0,0,0,0,0,0,0,0,0,0,0,0,0,0,0,0,0,0,0,0,0,0,0,0,0,0,0,0,0,0,0,0,0,0,0,0,0,0,0,0,0,0,0,0,0,0,0,0],"id":19,"left_children":[1,3,5,7,9,11,13,15,17,19,21,-1,23,25,27,29,31,-1,-1,33,35,-1,37,39,-1,41,43,-1,-1,45,47,49,-1,51,53,55,57,-1,-1,59,-1,61,-1,-1,-1,-1,-1,-1,-1,-1,-1,-1,-1,-1,-1,-1,-1,-1,-1,-1,-1,-1,-1],"loss_changes":[2.5894873E2,8.085466E1,2.3026093E1,8.991765E1,8.999551E1,2.4409689E1,1.1357925E1,1.6678546E2,1.1691507E2,8.113202E1,3.4315262E0,0E0,1.3715596E1,2.8711243E0,1.3236975E1,1.0744902E2,8.195541E0,0E0,0E0,1.4562845E2,1.02767075E2,0E0,2.3627853E-1,1.6670588E1,0E0,2.521515E-1,2.1293116E1,0E0,0E0,1.383131E2,1.2245248E2,6.82312E-1,0E0,6.336627E1,1.2453464E2,5.1305626E1,1.2205213E2,0E0,0E0,1.1725757E1,0E0,2.0962205E0,0E0,0E0,0E0,0E0,0E0,0E0,0E0,0E0,0E0,0E0,0E0,0E0,0E0,0E0,0E0,0E0,0E0,0E0,0E0,0E0,0E0],"parents":[2147483647,0,0,1,1,2,2,3,3,4,4,5,5,6,6,7,7,8,8,9,9,10,10,12,12,13,13,14,14,15,15,16,16,19,19,20,20,22,22,23,23,25,25,26,26,29,29,30,30,31,31,33,33,34,34,35,35,36,36,39,39,41,41],"right_children":[2,4,6,8,10,12,14,16,18,20,22,-1,24,26,28,30,32,-1,-1,34,36,-1,38,40,-1,42,44,-1,-1,46,48,50,-1,52,54,56,58,-1,-1,60,-1,62,-1,-1,-1,-1,-1,-1,-1,-1,-1,-1,-1,-1,-1,-1,-1,-1,-1,-1,-1,-1,-1],"split_conditions":[5.102885E-2,-2.417359E-1,-2.2123902E-1,2.3859591E0,1.7698323E0,-1.3432304E0,5.465489E0,2.061682E0,8.5066825E-1,-3.0636272E-1,4.734869E-1,-1.0532071E-1,-3.8943905E-2,1.6843342E0,-3.7047622E-1,-3.0777326E-1,-3.2691836E-1,1.323875E-1,-2.970841E-1,-5.32537E-1,-3.0388817E-1,-2.1474583E-1,-3.238751E-1,-2.6840124E-1,1.0639747E-1,-2.0126957E-1,1.8878255E0,9.531986E-2,-9.495011E-2,-2.925624E-1,-7.57563E-1,-4.2368826E-1,-3.374199E-1,-8.4224343E-1,-3.4105563E-1,2.3149997E-1,-2.322712E-1,-1.3471603E-1,-5.1042326E-2,-7.4656343E-1,-1.0584545E-1,-1.2166725E0,-1.0699239E-1,9.3184546E-2,-1.0476982E-1,2.6996362E-3,9.533622E-2,-1.6592523E-1,7.2904998E-3,-1.8924373E-1,-1.0310502E-1,-3.0852893E-2,1.5368448E-1,1.4525467E-1,-1.8496436E-1,1.6942622E-1,-1.072618E-1,-1.5020658E-1,1.3426291E-3,-9.481838E-2,5.505792E-2,6.342586E-3,-9.520417E-2],"split_indices":[3,4,5,9,9,9,4,9,7,5,7,0,6,4,7,5,4,0,0,9,6,0,2,5,0,5,4,0,0,6,4,4,0,9,5,4,4,0,0,7,0,7,0,0,0,0,0,0,0,0,0,0,0,0,0,0,0,0,0,0,0,0,0],"split_type":[0,0,0,0,0,0,0,0,0,0,0,0,0,0,0,0,0,0,0,0,0,0,0,0,0,0,0,0,0,0,0,0,0,0,0,0,0,0,0,0,0,0,0,0,0,0,0,0,0,0,0,0,0,0,0,0,0,0,0,0,0,0,0],"sum_hessian":[4.6723105E3,4.3173447E3,3.5496542E2,3.0058347E3,1.3115101E3,8.362312E1,2.7134232E2,2.9012144E3,1.0462049E2,1.2794547E3,3.205544E1,3.0810076E1,5.281305E1,2.586921E2,1.2650201E1,2.8687092E3,3.2504982E1,9.878314E1,5.837348E0,1.9108318E2,1.0883716E3,1.6487152E1,1.5568288E1,4.3019352E1,9.793698E0,2.2359784E2,3.5094276E1,6.0333204E0,6.616881E0,6.44399E2,2.2243103E3,2.7690367E1,4.8146152E0,8.339694E1,1.07686226E2,5.4804768E1,1.0335668E3,1.3512493E1,2.0557942E0,2.9178658E1,1.38406925E1,9.688905E0,2.1390894E2,5.8052354E0,2.9289042E1,3.1307034E2,3.3132864E2,4.058997E1,2.1837202E3,2.2344027E1,5.346341E0,5.6932327E1,2.6464615E1,1.2205527E1,9.5480705E1,4.7730297E1,7.074472E0,5.5193317E1,9.783735E2,5.67219E0,2.3506468E1,2.550661E0,7.138243E0],"tree_param":{"num_deleted":"0","num_feature":"10","num_nodes":"63","size_leaf_vector":"1"}},{"base_weights":[-5.8396515E-3,5.3465333E-2,-8.491235E-1,8.620217E-2,-5.015339E-1,1.0105773E-1,-8.7795174E-1,6.0642075E-2,7.9729337E-1,3.2982334E-1,-6.196116E-1,-9.802723E-1,-3.222771E-1,8.068157E-2,-1.0087162E0,-1.2254411E-1,1.0760733E0,7.7094114E-1,-9.5553E-2,-9.7847205E-1,-2.7255648E-1,-2.7519247E-1,-1.0442414E-1,9.928643E-2,-7.240237E-1,-1.5299382E0,9.340405E-2,-1.7366759E0,6.6029124E-2,1.2337883E0,-1.0481734E0,-8.5335635E-2,1.0635766E-1,-3.752481E-1,-1.096759E-1,1.1118015E0,-5.650864E-1,-1.0311627E-1,9.548428E-2,-1.03984796E-1,2.0297717E-1,8.477925E-2,-1.6915712E-1,3.0036828E-2,-6.444932E-4,-1.8613482E-1,1.0981327E-1,1.24525346E-1,-2.0463352E-1,-1.1463908E-1,1.3603985E-1,-2.1112822E-3,-1.3006724E-1,2.4521415E-1,-9.666977E-2,1.5628721E-1,-8.49609E-2,-1.0752095E-1,2.2636678E-3,9.338929E-2,-8.556985E-2],"categories":[],"categories_nodes":[],"categories_segments":[],"categories_sizes":[],"default_left":[0,0,0,0,0,0,0,0,0,0,0,0,0,0,0,0,0,0,0,0,0,0,0,0,0,0,0,0,0,0,0,0,0,0,0,0,0,0,0,0,0,0,0,0,0,0,0,0,0,0,0,0,0,0,0,0,0,0,0,0,0],"id":20,"left_children":[1,3,5,7,9,-1,11,13,15,17,19,21,23,25,27,-1,29,31,-1,33,35,37,-1,-1,39,41,43,45,47,49,51,-1,-1,53,-1,55,57,-1,-1,-1,59,-1,-1,-1,-1,-1,-1,-1,-1,-1,-1,-1,-1,-1,-1,-1,-1,-1,-1,-1,-1],"loss_changes":[2.3070612E2,7.835307E1,1.7137344E1,7.394218E1,2.378537E1,0E0,1.6685135E1,8.431423E1,8.092286E1,1.8045635E1,2.5973671E1,1.1079895E1,2.6073265E1,7.9224785E1,5.6742386E1,0E0,4.303766E1,1.1973824E1,0E0,6.9519577E0,4.4564392E1,2.1740515E1,0E0,0E0,1.1142176E1,1.3080513E1,7.915015E1,1.7307693E1,7.775342E1,3.6651886E1,2.3460207E0,0E0,0E0,3.320468E1,0E0,1.8370861E1,2.7076267E1,0E0,0E0,0E0,8.788385E0,0E0,0E0,0E0,0E0,0E0,0E0,0E0,0E0,0E0,0E0,0E0,0E0,0E0,0E0,0E0,0E0,0E0,0E0,0E0,0E0],"parents":[2147483647,0,0,1,1,2,2,3,3,4,4,6,6,7,7,8,8,9,9,10,10,11,11,12,12,13,13,14,14,16,16,17,17,19,19,20,20,21,21,24,24,25,25,26,26,27,27,28,28,29,29,30,30,33,33,35,35,36,36,40,40],"right_children":[2,4,6,8,10,-1,12,14,16,18,20,22,24,26,28,-1,30,32,-1,34,36,38,-1,-1,40,42,44,46,48,50,52,-1,-1,54,-1,56,58,-1,-1,-1,60,-1,-1,-1,-1,-1,-1,-1,-1,-1,-1,-1,-1,-1,-1,-1,-1,-1,-1,-1,-1],"split_conditions":[2.1644427E-2,1.8394256E-2,-3.610251E-1,4.1976124E-2,-3.7897432E-1,1.0105773E-1,1.6843342E0,-1.339021E-2,-6.946757E-1,6.637637E-1,-3.5990834E-2,-5.663546E-1,1.8878255E0,-7.57563E-1,-3.4313196E-1,-1.2254411E-1,3.86951E-1,-7.906895E-1,-9.5553E-2,-9.856919E-2,1.4531566E-1,-5.73001E-1,-1.0442414E-1,9.928643E-2,5.465489E0,-3.0777326E-1,-3.467383E-1,-2.1780434E-1,1.3806994E0,-4.0199572E-1,-3.4463793E-1,-8.5335635E-2,1.0635766E-1,-3.6313128E-1,-1.096759E-1,5.84195E-1,1.2408428E0,-1.0311627E-1,9.548428E-2,-1.03984796E-1,8.689247E-1,8.477925E-2,-1.6915712E-1,3.0036828E-2,-6.444932E-4,-1.8613482E-1,1.0981327E-1,1.24525346E-1,-2.0463352E-1,-1.1463908E-1,1.3603985E-1,-2.1112822E-3,-1.3006724E-1,2.4521415E-1,-9.666977E-2,1.5628721E-1,-8.49609E-2,-1.0752095E-1,2.2636678E-3,9.338929E-2,-8.556985E-2],"split_indices":[2,5,5,6,4,0,4,6,9,7,8,4,4,4,9,0,6,4,0,6,8,4,0,0,4,5,2,2,9,2,2,0,0,2,0,5,7,0,0,0,2,0,0,0,0,0,0,0,0,0,0,0,0,0,0,0,0,0,0,0,0],"split_type":[0,0,0,0,0,0,0,0,0,0,0,0,0,0,0,0,0,0,0,0,0,0,0,0,0,0,0,0,0,0,0,0,0,0,0,0,0,0,0,0,0,0,0,0,0,0,0,0,0,0,0,0,0,0,0,0,0,0,0,0,0],"sum_hessian":[4.611206E3,4.3090996E3,3.021062E2,4.069881E3,2.392187E2,4.0917807E0,2.9801443E2,3.9297131E3,1.401678E2,2.9527714E1,2.09691E2,2.5102686E2,4.698758E1,3.8583335E3,7.1379616E1,1.656705E1,1.23600746E2,2.2281263E1,7.246451E0,1.0219766E2,1.0749333E2,2.132131E1,2.2970554E2,1.0650656E1,3.633692E1,2.9303953E1,3.8290295E3,4.218826E1,2.919136E1,1.1544845E2,8.152299E0,3.1089075E0,1.9172356E1,1.743866E1,8.4759E1,1.8263441E1,8.92299E1,1.330552E1,8.015789E0,2.7012255E1,9.324667E0,1.5950155E0,2.7708937E1,1.2454619E3,2.5835676E3,4.073995E1,1.4483097E0,1.8996874E1,1.0194485E1,5.424141E0,1.1002431E2,1.8225478E0,6.3297515E0,2.4725924E0,1.4966066E1,1.5013857E1,3.2495852E0,4.7324463E1,4.190543E1,5.585957E0,3.7387094E0],"tree_param":{"num_deleted":"0","num_feature":"10","num_nodes":"61","size_leaf_vector":"1"}},{"base_weights":[-5.741237E-3,5.085555E-2,-8.0146766E-1,7.063923E-2,-7.7863127E-1,-3.3837697E-1,-9.4873595E-1,8.280526E-2,-1.1248288E0,-1.1314648E0,1.0034589E0,-1.03244714E-1,5.5650253E-2,-9.93428E-1,-8.001039E-2,6.0174935E-2,7.2068006E-1,-1.1513569E-1,-1.0887862E-2,-8.156468E-1,-1.261054E0,1.21981E-1,-6.6551946E-2,2.8621268E-1,-9.6665226E-2,-1.0381933E0,-6.840119E-1,9.151342E-2,-9.327712E-2,8.259768E-2,-1.4379128E0,-1.2825329E0,9.635715E-1,5.4951124E-2,-1.0203676E0,-1.4349678E-1,-1.0893525E-1,-2.2471441E-1,1.1867644E-1,-6.4313656E-1,-1.053187E-1,8.954145E-2,-1.02582745E-1,1.1874701E-1,6.9730207E-3,-7.783439E-2,-1.5028676E-1,-2.5244934E-2,-1.350019E-1,1.2813659E-1,-4.069562E-3,1.15783036E-1,-8.440616E-2,-1.06507875E-1,-3.6935233E-2,-1.0335412E-1,6.0040474E-2,1.2319634E-2,-9.192796E-2],"categories":[],"categories_nodes":[],"categories_segments":[],"categories_sizes":[],"default_left":[0,0,0,0,0,0,0,0,0,0,0,0,0,0,0,0,0,0,0,0,0,0,0,0,0,0,0,0,0,0,0,0,0,0,0,0,0,0,0,0,0,0,0,0,0,0,0,0,0,0,0,0,0,0,0,0,0,0,0],"id":21,"left_children":[1,3,5,7,9,11,13,15,17,19,21,-1,23,25,27,29,31,-1,-1,33,35,-1,-1,37,-1,39,41,-1,-1,43,45,47,49,51,53,-1,-1,55,-1,57,-1,-1,-1,-1,-1,-1,-1,-1,-1,-1,-1,-1,-1,-1,-1,-1,-1,-1,-1],"loss_changes":[2.049976E2,6.979451E1,2.0292679E1,6.047531E1,6.3435326E1,2.0427534E1,8.802719E0,5.9296837E1,1.0037231E0,2.375534E0,6.9158726E0,0E0,1.1698994E1,2.3024292E0,1.1275685E1,1.3351004E2,6.972085E1,0E0,0E0,4.873762E0,1.4322662E-1,0E0,0E0,1.8815735E1,0E0,4.3666077E-1,1.7341782E1,0E0,0E0,5.555366E1,1.3414078E0,7.4710846E-1,4.0297905E1,7.0205564E0,2.4510956E-1,0E0,0E0,1.8347334E1,0E0,2.1120698E0,0E0,0E0,0E0,0E0,0E0,0E0,0E0,0E0,0E0,0E0,0E0,0E0,0E0,0E0,0E0,0E0,0E0,0E0,0E0],"parents":[2147483647,0,0,1,1,2,2,3,3,4,4,5,5,6,6,7,7,8,8,9,9,10,10,12,12,13,13,14,14,15,15,16,16,19,19,20,20,23,23,25,25,26,26,29,29,30,30,31,31,32,32,33,33,34,34,37,37,39,39],"right_children":[2,4,6,8,10,12,14,16,18,20,22,-1,24,26,28,30,32,-1,-1,34,36,-1,-1,38,-1,40,42,-1,-1,44,46,48,50,52,54,-1,-1,56,-1,58,-1,-1,-1,-1,-1,-1,-1,-1,-1,-1,-1,-1,-1,-1,-1,-1,-1,-1,-1],"split_conditions":[5.102885E-2,1.1827041E0,-2.2123902E-1,6.211932E-1,9.915666E-1,-1.3432304E0,5.465489E0,6.66877E-1,1.2278947E0,-9.5409757E-1,-3.6313128E-1,-1.03244714E-1,9.8078316E-1,1.6843342E0,-3.7047622E-1,4.4918847E-1,-2.4066709E-1,-1.1513569E-1,-1.0887862E-2,-3.1278807E-1,-2.0126957E-1,1.21981E-1,-6.6551946E-2,4.5526987E-1,-9.6665226E-2,-2.0126957E-1,1.8878255E0,9.151342E-2,-9.327712E-2,-3.610251E-1,-1.1912016E0,-1.441895E0,-1.3264078E-1,1.8878255E0,5.465489E0,-1.4349678E-1,-1.0893525E-1,4.0094474E-1,1.1867644E-1,-1.2166725E0,-1.053187E-1,8.954145E-2,-1.02582745E-1,1.1874701E-1,6.9730207E-3,-7.783439E-2,-1.5028676E-1,-2.5244934E-2,-1.350019E-1,1.2813659E-1,-4.069562E-3,1.15783036E-1,-8.440616E-2,-1.06507875E-1,-3.6935233E-2,-1.0335412E-1,6.0040474E-2,1.2319634E-2,-9.192796E-2],"split_indices":[3,4,5,6,9,9,4,4,7,9,2,0,3,4,7,4,6,0,0,3,5,0,0,3,0,5,4,0,0,5,0,0,6,4,4,0,0,8,0,7,0,0,0,0,0,0,0,0,0,0,0,0,0,0,0,0,0,0,0],"split_type":[0,0,0,0,0,0,0,0,0,0,0,0,0,0,0,0,0,0,0,0,0,0,0,0,0,0,0,0,0,0,0,0,0,0,0,0,0,0,0,0,0,0,0,0,0,0,0,0,0,0,0,0,0,0,0,0,0,0,0],"sum_hessian":[4.5500005E3,4.248741E3,3.012596E2,4.1506606E3,9.808049E1,7.348402E1,2.2777557E2,4.109767E3,4.0893513E1,8.217572E1,1.5904767E1,2.6023668E1,4.7460354E1,2.1649438E2,1.1281199E1,3.9700144E3,1.397526E2,3.9723E1,1.1705153E0,2.6030846E1,5.6144875E1,1.4317858E1,1.5869092E0,3.9313835E1,8.146516E0,1.8707378E2,2.9420599E1,5.17223E0,6.108969E0,3.9124001E3,5.761428E1,1.4649838E1,1.2510276E2,5.095071E0,2.0935776E1,2.4237642E1,3.1907232E1,2.5561829E1,1.37520075E1,8.445425E0,1.7862836E2,4.946185E0,2.4474413E1,4.398884E1,3.8684114E3,6.329153E0,5.128513E1,1.1922657E0,1.3457572E1,9.482122E1,3.028154E1,2.1588156E0,2.9362552E0,1.8995174E1,1.9405998E0,1.2780797E1,1.2781032E1,2.3838363E0,6.0615883E0],"tree_param":{"num_deleted":"0","num_feature":"10","num_nodes":"59","size_leaf_vector":"1"}},{"base_weights":[-5.6884075E-3,8.256648E-2,-4.719797E-1,-9.0504074E-1,1.07537694E-1,-6.378147E-2,-8.168085E-1,2.655651E-1,-2.3570538E0,1.0663252E-2,3.643094E-1,-3.813142E-1,5.553214E-1,-9.277455E-1,-2.104998E-1,-1.5418023E0,8.0867714E-1,-2.5267857E-1,-1.1665376E-1,1.5847132E-1,-3.3153024E-1,8.760943E-1,2.6089245E-2,1.0747311E0,-6.624644E-1,9.3749744E-1,-6.810342E-1,-1.2111039E0,-6.5608877E-1,1.1747693E0,-1.3811435E-1,-1.9768663E-1,-6.4044215E-2,-1.5368964E-1,1.4125785E-1,8.110327E-2,1.2948505E0,1.310583E0,-4.9379224E-1,1.0272377E0,-2.179965E0,-1.00962564E-1,1.2580881E0,1.4407204E-1,-9.2884034E-2,-1.0019652E0,